#ifndef NET_H
#define NET_H
float conv1_weight[][75]={
{-0.07126033,-0.15328638,-0.019695614,-0.14648163,-0.021405835,-0.03188105,0.056078386,0.042833515,-0.037495527,-0.016808042,-0.0303751,0.04077632,-0.15588215,-0.05869405,-0.10836439,0.07701277,0.012545681,-0.053824626,-0.10669353,-0.0015457452,-0.094408184,0.034932286,0.10178766,-0.03314175,-0.08568102,-0.09673468,-0.054201752,-0.11677697,0.081965744,-0.055622954,0.034619603,-0.027463712,0.057116777,-0.09983456,-0.107723296,0.022991082,-0.08946515,-0.0399826,-0.10165741,0.033844575,-0.03150515,-0.08407199,0.10248043,0.078454964,0.01227672,0.08169495,0.11843801,0.15613356,0.06223591,0.1457665,-0.015821394,-0.09283235,-0.13261913,0.03960342,0.046766903,-0.08884588,0.037081346,-0.102450065,0.040939588,0.047690757,-0.052647382,0.002521243,0.07842506,-0.11928592,0.024210803,0.006726977,0.015877426,0.0035650753,0.006813129,0.1322235,0.11093102,0.083332494,0.07726294,0.1055403,-0.03412213},
{-0.059254758,0.01210099,0.070019834,0.04908697,-0.03221671,-0.086244866,-0.124909304,-0.0128358435,-0.112628,-0.06605542,-0.032878783,-0.062021345,-0.02196725,-0.037897978,-0.060261987,-0.05265621,0.07026718,-0.07423929,-0.11683362,-0.038299236,0.04102437,-0.0009001713,0.054666236,0.084174395,0.07944793,0.06469386,-0.13979946,0.0072148154,0.06658183,-0.0785741,0.0038437229,-0.12669148,0.03424298,-0.14413066,-0.15541965,-0.06896384,-0.09744477,0.007614082,-0.043189693,-0.044794705,-0.019891659,0.04099522,0.044524457,-0.091079146,0.0950803,-0.109661765,0.048819426,0.08569543,-0.1125733,-0.07230019,-0.092439875,-0.034889854,-0.1265486,-0.048263513,-0.13932411,0.095503286,-0.040758967,0.059369076,-0.080836914,0.016811103,0.12022264,-0.083239555,0.04010383,0.006931578,-0.052322734,0.097202756,0.1259254,0.019364433,0.06729314,0.04989615,-0.060864665,0.024704076,0.0071964534,0.028184494,0.11031216},
{-0.105358034,-0.142036,-0.059923396,-0.0009625891,-0.13530803,0.04877038,-0.08278283,-0.16832656,-0.13237134,0.013047201,0.044867508,-0.12747882,-0.13477547,0.027382024,-0.0014271019,-0.07391479,-0.12911406,0.032368235,-0.05552563,0.07228461,-0.037452653,-0.06698801,-0.0061215647,-0.079799496,-0.13442184,0.06641941,0.015724132,-0.026657999,0.028314462,0.061869673,0.028476043,0.020413153,-0.083375365,-0.13577089,-0.127121,0.06478597,-0.0850622,0.052607056,-0.08616503,0.018679434,0.10158746,0.04327535,-0.06466127,0.07601287,0.13344753,0.12479897,-0.044022836,-0.11843771,0.002025312,-0.023786481,-0.065999836,0.05296564,0.122358,0.10529819,0.018954989,-0.07034095,0.09023883,0.039278362,-0.01631432,0.115259625,-0.030516876,0.11308052,-0.10623774,-0.011649736,-0.03823171,0.06955617,0.02129804,-0.05449868,0.1239379,-0.006509666,0.056073807,-0.013662859,-0.061446156,-0.11400341,-0.10789891},
{0.014671805,-0.12407216,0.0791944,-0.12315928,0.055516824,-0.023680348,0.006344205,0.010274964,-0.14695324,-0.11165921,-0.043055285,-0.058714077,-0.12974079,-0.046309266,-0.09763858,-0.12458962,-0.15192828,0.009853935,-0.11398387,-0.10775669,-0.092602365,0.051974647,0.017418733,-0.06341172,0.032432906,0.08542218,0.038251135,0.027102258,0.12788711,-0.08186471,-0.05325531,-0.008656055,0.092405535,0.0019573376,-0.10270723,0.07345501,0.09914903,0.00091988535,0.0866253,-0.042492554,-0.02421409,0.083069675,0.00033292576,-0.04035126,-0.075338,0.053073533,0.1165299,0.097871654,-0.04145362,0.09117859,0.059336968,0.11135714,0.052334446,0.10851136,-0.05642292,0.10204837,0.093274325,0.03237566,-0.08733502,0.049299967,-0.08108735,0.015161655,-0.08184486,0.011971722,-0.09309212,-0.08802048,-0.07588612,-0.10261632,0.06027711,0.08501337,0.02422162,0.09870188,0.05428924,0.022763938,0.1408051},
{-0.058257077,0.03305946,0.06900116,-0.06776991,0.01824929,-0.049700905,0.06193081,0.065981194,0.0655909,0.03120236,-0.06288758,-0.0762199,-0.051877465,-0.032783628,-0.05470993,-0.036181472,-0.101872995,-0.047691237,-0.10243612,0.06277409,0.0024846767,-0.080548346,-0.014658923,0.028815512,0.07248669,-0.04130585,-0.058104068,0.022940291,-0.052264024,-0.058251392,-0.035260245,-0.04357292,0.021500599,-0.038215466,-0.10790171,-0.06623438,0.019585436,-0.036928985,-0.07665304,-0.0697924,0.03558369,0.1267749,-0.09185411,-0.008801428,0.10163961,0.1451322,0.08797847,0.070810534,-0.016771516,0.05942027,-0.054896265,0.08841973,0.11189851,0.06800133,0.052839726,0.029571665,-0.017760916,0.04935455,0.022136906,-0.02761058,0.031996615,0.066706665,-0.078038126,-0.009672363,-0.038350884,0.119488716,0.10973759,0.06812936,-0.01703388,-0.008170025,0.098274514,0.10056579,-0.004696748,0.073320106,0.009528736},
{0.008933157,0.107509315,-0.071909264,0.054332595,0.118036464,0.0740552,-0.047998104,0.109627746,0.12805001,-0.050182685,0.0917028,0.1325123,0.10604068,-0.08050939,-0.0138193155,-0.049403958,0.057784542,-0.0770247,0.013340162,0.020922905,-0.0031043426,0.041759577,0.0011672609,0.02931667,-0.03508817,0.024827784,0.06878955,0.11943532,-0.045925766,-0.047565952,0.11639505,-0.020841507,0.054220308,0.13240552,0.086971305,0.10793678,0.13840295,0.14190556,0.061059717,0.13930407,0.08905125,-0.088322945,-0.008603953,-0.033137776,-0.013906942,0.11279939,-0.087714724,-0.078472115,-0.13611555,-0.109300345,-0.017297275,0.09423212,0.07422928,0.09076529,-0.08481484,0.08516083,0.16567832,-0.04835127,-0.0435774,0.068587385,0.096878104,0.043439396,0.1385502,0.099010855,0.013839147,0.1386112,0.09274161,-0.011707669,-0.03988181,0.07760204,0.06268758,-0.062025867,0.0473933,-0.060569648,0.02582726},
{-0.11351322,-0.14762548,-0.08670588,-0.06678239,0.05415251,0.04417912,-0.054432575,-0.15670417,-0.06136689,-0.15042935,-0.08037282,-0.060853392,-0.0059252293,0.08000249,0.01817457,-0.07425861,-0.07011386,-0.053968754,0.0669826,0.030810125,-0.009185931,0.04208489,0.008632905,-0.10715245,-0.15238316,0.05125331,-0.10006656,-0.062853,-0.109107584,-0.13418394,0.083668314,-0.0051454385,-0.13975611,0.05788775,-0.08990654,0.035964444,0.12969089,-0.06984378,0.065122254,-0.06763912,0.00080474315,0.06614835,0.009422884,0.026218893,-0.027784407,-0.030529093,-0.069767654,0.100727975,-0.07676276,0.02323956,0.07486812,-0.10430941,-0.004795702,-0.018473435,-0.07437813,0.07250745,-0.06562888,0.045633562,-0.109577216,0.02021619,0.0431534,0.13876158,-0.059999347,0.13174522,0.116834365,0.07753729,0.120841175,0.006010912,-0.08340273,0.020773886,0.0878051,-0.09825588,0.049051132,0.08637257,-0.11176534},
{-0.07394237,0.0006192094,0.10977698,0.0879468,0.09966186,0.032125276,-0.07694508,-0.06311779,0.09158614,-0.059118725,-0.06270459,-0.06963761,-0.0073641124,0.002563409,0.018024743,-0.068769105,-0.14424364,-0.02042985,-0.13617963,-0.015162506,-0.0901887,-0.080602005,-0.029795041,-0.03551172,0.08880536,0.14425988,0.10361775,-0.0589803,-0.012712654,0.15617383,-0.041135468,-0.08645603,-0.026392655,-0.05947257,0.1280042,0.08441612,-0.0027879593,0.024625666,0.11946644,0.13752331,-0.06778562,-0.13260688,0.07530878,-0.09925897,0.09254204,-0.046094496,-0.12843698,-0.0752019,0.033472087,0.12834524,0.020918569,0.014139663,0.14582428,0.14386511,0.00790694,0.1023544,0.09526304,0.005760585,0.08780909,-0.054900378,0.06529232,-0.043851223,-0.081780024,0.085422136,0.006907474,0.06992014,0.02437909,0.000329856,0.06081665,-0.043811604,-0.07089194,-0.12702878,-0.13681155,-0.08390737,0.028937802},
{0.1371061,0.018493623,0.029913267,0.12928453,-0.064918436,-0.06535834,-0.09183868,-0.011311735,-0.09917136,0.08661822,-0.0071434905,0.060423985,-0.035875537,0.02809066,0.09150437,0.13022774,0.013527971,-0.0395809,-0.12361045,-0.051184066,0.065926455,0.06806577,0.026825272,0.013688735,0.04550505,0.13360804,0.057765912,0.15315397,0.12824154,0.023827035,-0.031103928,-0.009398709,0.08113288,-0.041110843,-0.032030053,0.09982367,0.0761467,-0.08194336,0.008872593,0.11287902,0.027503379,0.124692835,-0.044489726,-0.1218415,0.004746724,0.016880944,-0.04523408,-0.014380777,-0.12934053,-0.019756997,0.09083477,-0.015830979,0.109896824,-0.04038687,0.037830636,-0.116170466,-0.06465248,-0.09529217,0.035084415,0.09475945,-0.10726643,0.059412863,-0.115664944,0.042266786,-0.055438712,0.056445505,0.060585465,-0.085261695,-0.038870182,-0.044501077,0.12123152,0.103064746,-0.091560945,-0.07429346,0.064138226},
{0.0034142525,-0.15539126,-0.096498325,-0.12718031,0.0568462,-0.14445692,-0.021040196,-0.077880055,-0.11090258,-0.11702606,-0.002669401,0.10140526,-0.086681895,0.052202076,-0.0748841,0.124550655,0.091185905,0.033060722,-0.009561488,0.030990066,-0.118421905,0.0338534,0.04525118,-0.10440929,0.04517886,-0.04900732,-0.017241381,0.020398965,-0.13717766,-0.075484596,0.04122138,-0.07366518,-0.004858578,-0.12915523,0.07551106,0.13790123,0.034329157,-0.010902177,0.1336884,0.06759645,0.11595458,0.08116038,0.12275456,-0.015098406,-0.032907393,-0.03907055,0.13569334,0.105521284,0.030901814,-0.08140153,-0.08761584,-0.046392545,0.051316265,-0.032219842,-0.07058404,0.05112213,0.09761172,-0.0023175962,-0.020540368,0.0030099305,0.025938021,0.07253574,0.09831337,0.073898785,0.023279078,-0.069860294,0.0046502473,0.11498025,-0.06475289,0.030373178,-0.032224376,-0.07612079,-0.02291718,0.08837763,0.0964819}
};
float conv1_bias[]={
-0.0576641,
0.03401745,
0.047266018,
0.14324772,
0.027291376,
-0.035137396,
0.040075943,
-0.01878849,
-0.01564477,
0.046668675
};
float conv2_weight[][250]={
{0.10686514,0.04466164,0.07549284,-0.004569359,0.047776673,-0.062115893,-0.012177798,0.038885128,0.08001448,0.05325653,-0.0963193,0.026920695,-0.014229214,-0.056655515,-0.059037603,0.006631631,0.037001815,0.020173814,-0.040117875,0.04488055,-0.020677075,-0.0023895649,0.032411925,0.03739789,0.053297132,-0.032576937,0.06704835,-0.030974498,0.031217245,0.0067822514,0.004081431,-0.04246205,0.033698406,0.041146982,0.05889576,-0.08185181,-0.090905264,-0.061711166,-0.09481228,-0.063954666,-0.006220072,-0.06041899,-0.0021180015,-0.02895966,0.053157326,-0.018657159,-0.00011216142,0.073312014,0.034234527,-0.041824013,-0.0020157187,0.059068613,0.08206012,0.04422823,-0.02648578,0.019311849,0.01889129,-0.016349308,0.07071939,-0.0362577,0.024925774,0.029798893,0.027299419,0.059055183,-0.031831533,-0.04608048,0.06898569,0.073194966,0.00053117715,-0.0699874,-0.03395967,-0.079881996,-0.03015303,0.0056662047,-0.042512905,0.052550446,-0.010948536,0.004989866,0.05523084,0.047070693,0.01360338,-0.013768172,-0.018695721,-0.05898686,-0.03945844,0.0028961273,-0.0068870964,-0.0051140217,0.06483194,-0.005975419,0.07078075,0.071419075,-0.0010668698,-0.016091637,-0.0122849075,-0.025660126,0.044016737,-0.04252513,0.033704538,-0.017942969,0.05009768,0.06908206,0.06816799,-0.007352582,0.05970107,0.0061227237,0.03181272,-0.054939296,0.0639361,-0.047971457,-0.046334952,-0.04554949,0.037617467,-0.07620607,-0.06746346,0.035183188,-0.02986726,0.031180793,0.0010780799,0.011625311,-0.043444794,0.03470152,0.017824965,-0.01679453,-0.0010743361,-0.0025751565,0.0024144603,-0.017935073,-0.05092065,0.012199758,0.033192463,0.08857148,-0.02633979,-0.04961118,0.00017235012,0.018431887,-0.005972979,0.04252703,-0.037697483,-0.008536366,-0.035289492,0.008403777,-0.04543494,-0.060580935,-0.0411542,0.008897438,-0.048189398,0.043596018,-0.004284531,0.010533556,-0.024126038,-0.028014034,0.003163864,0.058487438,0.051492624,0.07507243,0.06492286,0.06452606,-0.002201609,0.06415165,0.023972565,-0.07561108,-0.068004794,0.011546171,-0.06804848,-0.019495437,-0.028306052,0.04269718,-0.0070782905,0.035590336,0.045679614,-0.042912304,-0.062197503,-0.03414036,-0.06922571,-0.054820642,0.032002974,0.03691627,-0.013219862,0.07244461,-0.001618601,-0.021422135,0.041874904,-0.040608406,0.003244374,0.094045684,0.018458182,0.06385156,-0.018838871,0.034503803,-0.033428952,-0.025719473,8.424718e-05,-0.012316567,-0.0012181402,0.025391422,0.020355154,0.0031379918,-0.020124804,-0.013709926,0.016629642,0.06091134,-0.008009527,0.021579808,0.06281981,-0.041819733,0.06883193,-0.034859974,0.07604013,-0.014284242,0.080886,0.08515209,0.06887081,0.080745235,0.017506463,-0.023575917,0.058329165,0.0006126915,0.020343956,-0.01299879,0.0052307807,0.042748153,-0.050171334,-0.022091566,-0.038676336,0.037489027,0.08490293,0.028524863,0.053642392,-0.017192077,0.07381316,0.019394299,0.096017376,0.09392461,0.056552038,-0.016264034,-0.0034938268,0.013732605,-0.020908345,-0.09503274,-0.06608891,-0.021450333,-0.0058313753,-0.004720696,-0.013988251,0.022941453,-0.034253716,0.07221444,0.053286225,0.06473561},
{-0.025728974,-0.036923032,-0.06908873,-0.059471168,-0.02134777,0.030240396,0.038392507,0.024359511,0.0027498328,0.011079648,-0.03238616,0.04142386,-0.019361917,0.050820917,-0.042598233,-0.010533685,-0.061172176,-0.008812596,-0.03409543,-0.010164004,-0.0030236547,0.07012829,0.059080765,0.039839074,0.031666234,-0.058514208,-0.028045636,0.013623577,0.07118721,0.012989599,-0.018646874,0.07030064,-0.033954613,0.024251794,0.024173386,0.066385716,0.059740853,-0.04070933,0.014178202,-0.020514645,-0.0016327815,-0.022272978,0.059250396,0.0283719,-0.054476324,0.054788094,0.01550708,0.039355665,-0.019555144,-0.020484481,0.058445368,-0.021587012,-0.033848315,-0.025104133,-0.08186196,0.06264151,0.014586243,-0.011789319,-0.033103075,-0.019320352,0.03177269,0.020386426,-0.0049324157,-0.08431721,0.0013054993,0.0661689,0.03844276,0.035483982,-0.04605561,-0.038834002,0.025473768,0.053080734,-0.024357753,-0.05526042,-0.036454696,0.040990412,-0.0147405835,0.037425604,0.02725029,-0.03040151,0.044577837,-0.0398426,-0.012077892,-0.0007586115,-0.06342779,0.050941747,0.005759293,-0.046263784,-0.067925505,-0.07343947,0.03047925,0.045789428,0.01831322,-0.08080446,-0.053682625,0.07609238,-0.02201616,-0.04440982,-0.008611375,0.02966341,0.03619476,-0.0353274,0.05786209,0.013531443,-0.04403555,0.06627458,0.07566531,0.02165602,-0.024323935,-0.029262856,0.09365234,-0.022314815,0.038711645,0.03478634,-0.038233947,0.032978505,0.02842546,-0.05957468,-0.032928295,-0.051149603,0.0698085,0.027119907,-0.03680048,0.042910844,0.032053024,0.066369765,0.026970597,0.047651127,-0.018911436,-0.027500434,-0.034759387,0.0010576433,-0.01377291,0.045448672,-0.047518976,0.069194235,0.072299585,-0.006877436,0.045659773,-0.01258672,-0.005152014,0.043529786,-0.05466359,0.037769046,-0.06074873,0.013405252,0.038389806,0.052756485,-0.043650772,-0.041703556,0.058669407,0.04820289,-0.032069992,0.036548775,-0.07737816,0.052888002,-0.011607604,0.058235016,-0.048085697,0.014217789,0.084699385,-0.0048999665,-0.016207408,-0.04935041,-0.03904724,0.0565842,-0.037391428,0.01694412,0.031176277,-0.01512228,0.039422266,0.012590827,0.005091329,-0.048681423,-0.062907144,-0.03336599,-0.012338135,0.078378685,-0.015278888,-0.03640812,-0.055996552,-0.057426434,-0.040904593,-0.06903926,-0.009031006,-0.061800543,0.005052407,-0.02813789,-0.061097518,-0.05648569,-0.0632849,-0.025094058,-0.053740323,-0.051492043,0.045642827,0.012645332,-0.024732763,-0.023841733,0.013542043,-0.060805425,0.06839927,0.057053275,0.0032486978,-0.030033767,-0.012923892,0.08638907,0.06385607,0.01459767,-0.040891472,-0.026366718,0.06748528,-0.033716,0.0011347259,0.016970241,-0.032823972,0.051977273,0.010765062,0.016229184,0.015540244,0.049960148,0.026227342,-0.05155582,-0.0055007813,-0.05330781,0.008524959,-0.00054954557,-0.005139383,-0.0006507769,-0.0060175727,-0.0733856,0.08459272,-0.019923752,0.05715438,0.071109235,0.037129458,0.09538635,-0.020286549,0.037278328,-0.016309278,-0.021130398,0.07921409,-0.004180669,-0.027936056,0.032495864,0.026029881,0.009363411,0.035091348,0.034590986,-0.04354197,0.013285814},
{0.046093035,-0.04346763,-0.017103415,0.05723178,0.021493483,0.0343589,0.017771207,0.050298236,0.05925453,-0.013148766,0.042649914,0.07589941,0.006121075,0.048993886,0.029109815,-0.037963625,0.0053182165,0.00957409,-0.034048196,-0.037645962,-0.049694046,-0.07914888,-0.023248054,-0.045344245,0.02683696,-0.054626517,-0.0334458,-0.029685099,-0.0028598325,0.034104757,0.009096481,0.05451323,-0.038217112,-0.009976629,0.0047149826,-0.07358059,-0.02157937,0.021361697,0.04343572,0.0008422069,0.05780275,-0.0029468215,-0.046970103,0.0074847373,0.029777152,-0.08798067,-0.08202235,0.053728595,0.044063184,-0.045949336,0.036161162,0.011860685,0.014746181,-0.017924825,0.013757358,0.0669404,-0.028904734,-0.0023818284,-0.045672562,0.019133799,-0.012374396,-0.020561801,0.050141037,0.07006359,-0.004856954,0.06175451,0.057091095,-0.033214036,0.03699795,-0.04500562,-0.022295937,-0.007902762,0.05086507,0.039050356,0.040798455,-0.05605605,0.03703087,0.02322264,0.040740393,0.07384501,-0.030705342,-0.02239082,0.06133216,-0.010993858,0.07453017,0.010714098,0.058168374,0.08784871,-0.02872166,-0.030212704,0.04130338,-0.0536843,-0.014168666,0.029466748,-0.03982076,0.047090355,-0.0025301625,0.0613497,0.0022221971,0.046778504,0.014304103,-0.0288535,0.0537993,0.057025906,-0.02253385,0.006136658,0.011242701,0.024699397,0.023382941,-0.039875254,0.022022434,0.054403983,0.033912156,0.05983307,-0.020302594,-0.005454269,-0.04115489,-0.049179163,0.0085159205,-0.028175391,0.045229297,-0.037736353,-0.017628966,-0.030033281,0.03885475,0.081952326,0.009532023,-0.0055517936,0.0059665493,0.014740778,0.039958302,0.004633598,-0.010753591,0.062242243,0.019509653,-0.09061567,-0.083836176,-0.050688412,0.004798457,0.048342016,-0.069135666,-0.025956703,-0.0027254906,0.051942144,-0.013324897,0.045844775,0.008692165,-0.020836782,-0.012381896,0.06278507,0.04575979,-0.05808675,-0.035978395,0.06225527,-0.032436274,-0.028193235,0.046512928,0.05161428,0.012338463,-0.012611169,-0.03779461,-0.01704109,-0.0028628474,0.011918971,0.043462873,-0.032276787,0.032269586,-0.033925135,-0.0145283975,-0.047293995,-0.026644716,-0.011041619,-0.025934689,0.063259296,0.011147561,0.056307252,0.06295232,0.066167355,0.011398796,-0.08887498,0.09215587,0.031948745,0.056522675,-0.023841301,0.064396426,0.0633224,0.0585986,0.055457152,-0.03890412,0.05337225,-0.05534907,-0.03402986,0.06239693,0.038200602,-0.017052745,0.02230039,-0.018688614,0.07438831,0.060557693,0.07071323,0.079380825,-0.0059665465,0.024705721,0.001962178,-0.0030758153,-0.04237925,0.02039683,-0.029363038,-0.06509231,-0.051237643,-0.04297011,0.04291144,0.06885774,0.019842273,0.027988773,-0.034274757,-0.04062277,-0.024100449,0.06411848,-0.044635057,0.081720985,-0.08783169,-0.061495185,-0.05277831,-0.045416016,-0.04207743,-0.03908946,0.071433745,0.020136137,0.014489426,-0.046125963,-0.016107272,0.012641792,0.037361387,0.044680547,-0.04892446,0.07448722,0.07334038,0.025866488,0.058029216,0.06141149,-0.044101078,0.07829523,-0.014143022,0.07861591,-0.037770055,-0.028082058,0.0035967329,-0.041942906,0.016082669},
{0.04186385,-0.0038577758,0.07255682,-0.012693773,-0.03534771,-0.029759914,0.0033510567,-0.021463918,-0.075040646,-0.06896097,0.04533648,0.0074080615,0.0015281395,-0.056179345,-0.0757339,0.07647334,0.059609633,0.047146413,0.027519925,-0.004661952,-0.030935524,0.02397771,-0.035460096,0.030813036,0.042113382,-0.03609732,0.0016760695,-0.0173179,-0.08474032,-0.0010146142,-0.040841226,-0.057824105,0.03171628,-0.0008848689,-0.010044611,0.073202945,0.077377036,0.060840342,-0.028662402,0.013414765,0.05039769,0.042875778,0.06254618,0.07341702,0.044062603,0.06347982,0.028478889,-0.022960069,0.014762546,-0.008338224,-0.02004378,-0.032405455,-0.057771403,-0.01364685,-0.018233687,-0.013083693,-0.07766179,0.0021508893,-0.008809943,0.015180376,0.07971288,-0.04578017,-0.019619007,0.0424296,0.018304048,0.048017133,0.00011675843,-0.0360897,0.039486874,0.066458724,0.08004382,0.0673577,0.07356483,0.060464818,0.014409996,0.013792722,0.0015547803,-0.0004424896,-0.044280365,-0.079200946,0.05289,-0.011606497,-0.05412384,0.024488272,-0.04017362,0.04131044,0.019187557,0.034081567,0.04793381,0.064947024,0.027433228,0.058628056,-0.033784714,-0.0010142822,-0.027760724,0.06250197,0.015305461,-0.04281218,0.029972583,0.039882652,0.0034348671,0.046153147,-0.054247554,-0.04178102,-0.0033666105,-0.04802808,-0.09183022,0.02164452,-0.085863136,-0.012932364,0.017740328,0.021041056,0.045515485,-0.042441107,0.022077395,0.031977106,0.09282685,-0.042417537,0.04223575,0.035392366,0.025739962,0.03965994,0.0072290692,-0.017753182,-0.046127,0.034845363,0.0013765267,-0.019821499,-0.041957837,0.04840267,-0.031074245,0.09117217,0.08572242,0.08275059,-0.03657991,0.014749223,-0.056308713,0.012950769,-0.05747686,-0.048248127,0.015690299,0.030702261,0.04161711,0.002056271,-0.0151783535,0.02520254,0.029991522,-0.04489256,0.035538115,-0.056899827,0.07053674,-0.0064900424,-0.029814169,-0.03297517,-0.03319717,-0.032897923,-0.018579898,-0.07849021,-0.016521862,0.020848682,0.0444993,-0.005064734,0.021467721,0.0072690225,0.046824567,-0.021930542,-0.0029560095,0.08778601,-0.0049053016,0.04112293,-0.009325894,0.07216183,0.06971319,0.026948133,-0.036120214,-0.01803776,-0.066544816,-0.020982439,-0.09041616,-0.07780005,0.06253749,0.044762325,0.041074205,0.06817826,0.01046167,0.018232374,0.039868113,0.019559968,0.020972703,-0.019880874,0.031398837,-0.05314351,-0.07918337,-0.0144621,-0.0104451645,0.022078905,0.061404686,0.026821114,0.050629433,0.087962754,-0.048469998,-0.0148522565,0.0135811595,-0.025044402,-0.029535409,0.005141592,0.036354844,0.07428633,-0.056527667,-0.01943699,0.07492978,0.04972595,0.045870744,0.03808592,0.029422939,-0.017828658,-0.05308233,-0.102552876,-0.071588434,-0.011469212,0.062963605,0.014849326,-0.039955433,-0.029405063,-0.05373334,0.06239808,0.027153896,-0.012944534,-0.0341972,-0.013247771,-0.037414473,-0.03598507,-0.05002988,-0.029157415,0.01680258,0.041944034,0.04863396,-0.034865815,-0.021367963,-0.04780876,0.0782467,0.08239001,0.038786165,0.017097633,-0.03911394,0.023447942,0.060921066,0.023757493,0.043746207,-0.023060046},
{0.047013313,-0.03601488,0.055975467,0.07020426,0.069166884,-0.016479066,-0.039528,0.049725886,-0.012696747,-0.013460806,0.022910707,0.06563951,-0.021396985,-0.05755418,-0.061421815,0.008497466,0.02114045,0.05023366,-0.02635899,0.008442372,0.018180393,-0.06044453,0.026668254,-0.05347082,0.022738352,0.03347163,-0.04476508,0.06766396,0.082931265,0.035273563,0.026020933,0.0788376,0.039553285,-0.058264636,-0.009204437,-0.04349484,-0.042278353,-0.039293934,-0.04081909,0.00447399,-0.013106527,0.019278599,-0.023298223,0.002615014,-0.052175514,-0.03418542,0.043050546,-0.06742705,-0.039652783,0.025349798,-0.018058466,0.07623279,-0.015211756,0.04805058,-0.044095464,-0.034153912,0.066709325,0.022813164,-0.06476562,-1.779024e-05,-0.011068907,0.05587403,0.0015362,0.025230888,-0.026831571,-0.06333867,0.010547781,-0.0030781622,-0.04072677,0.02285763,0.043263134,-0.004945379,0.019233458,0.013097124,-0.016892027,-0.03570759,0.018751167,-0.034009736,0.039900888,0.019241497,-0.02485454,0.07149368,-0.021577848,0.0120109245,-0.043186612,0.055460874,-0.04934318,-0.039360248,-0.06346229,-0.068007864,0.07334324,-0.0034210673,0.06202763,-0.027460964,-0.08211719,0.019107504,0.040989056,0.0138770575,-0.046051428,-0.0105570145,-0.015116845,0.022899857,0.0387939,0.004993878,0.02072747,0.01761328,0.00060938415,0.060386375,-0.0073355176,-0.031343568,-0.0033714366,0.041906405,0.013702101,-0.00157792,-0.020089157,-0.013629547,0.05015812,0.0110936165,-0.019361442,0.0064189364,-0.0741587,0.017820047,0.007489393,-0.020222299,-0.0119994925,0.053381123,0.010410673,0.008766996,0.0042701787,-0.029728213,0.005851965,-0.051174115,-0.022066697,0.030848142,0.059419714,0.049963877,-0.04284452,0.008075115,-0.03393016,0.026136829,-0.07198202,0.004442576,-0.002182488,-0.05788596,-0.009821281,0.010616656,-0.059347402,0.0043401183,-0.0021336554,-0.0053541088,-0.011626923,0.07510327,0.03930043,0.06520799,0.078139044,-0.03096046,0.036594316,-0.040971622,-0.016249686,-0.03386334,0.03924549,0.07035926,0.06770617,0.009909978,0.011112922,0.008711196,-0.05719569,0.046083655,-0.08118904,-0.08791345,-0.016974062,0.015390797,0.03669783,0.0096312165,-0.03346823,0.07503383,0.08156082,-0.009224813,0.037536856,-0.031705003,0.105342604,0.051589105,0.09083093,0.01747475,0.016157946,0.048765533,-0.04363107,0.00886794,0.045691658,0.011775777,0.01708471,-0.03130371,0.024214614,-0.035489593,-0.05705947,-0.04360234,0.046967927,-0.018084113,0.0016739233,-0.028008133,0.07372426,0.07227851,-0.079586044,0.00961717,0.013022624,-0.020019678,-0.009742228,0.07479004,0.035339173,0.0011823837,0.0045923623,0.040572084,0.05584331,-0.0011369393,-0.0046614497,-0.025123317,-0.013032337,0.022722756,-0.047562722,-0.033165146,0.036601976,0.04201412,-0.020457417,0.030496677,0.006319508,0.07962128,-0.012659335,0.0036274923,0.05874286,0.1071166,0.012252674,-0.001777711,-0.0026553264,0.03147223,0.017196584,-0.0035946344,0.02231565,-0.0026017223,-0.02165831,0.0022343008,-0.014119863,-0.01798,-0.028493773,-0.016728304,-0.010006737,-0.050276298,0.013561323,0.017673884,0.00076834444,0.027472636},
{0.009535455,0.09691704,0.10379592,0.046556726,0.007510728,0.0027217497,0.018157102,-0.00792624,0.010598444,0.027643856,-0.04823475,0.052836172,0.07357789,0.074442945,0.010191711,0.03557429,-0.02092651,0.06037267,0.061347988,-0.040875375,0.015430706,0.0039640935,0.034901477,-0.008016566,-0.058848556,-0.029410524,0.043584917,0.06276793,0.06933012,0.042271424,0.022260861,0.031801477,0.021308742,0.075181924,0.0020290082,-0.008000665,0.029438045,0.06830144,0.080054976,0.033528395,0.02969566,-0.01056245,0.01661293,0.018638557,0.054799173,-0.0045307963,-0.015840681,0.019232893,-0.051313825,-0.020417182,-0.0035719117,0.036166836,0.066295475,0.05541163,-0.0039594523,0.0022355176,0.028111542,0.04355662,0.08652417,0.05444715,0.076016776,-0.019944089,-0.0075150393,0.09020198,0.059250414,0.00879735,0.033170614,0.027858825,0.0022316452,-0.033425335,-0.0065955454,-0.008658157,-0.057469103,-0.049759135,-0.07411953,0.052117657,0.0347578,0.02778159,0.076230034,-0.012537495,-0.016379131,0.010502906,0.035933446,0.06644089,0.056212563,0.020503907,0.020729912,-0.0017442962,0.06345338,0.029257951,-0.06373499,-0.06328942,-0.05429128,0.006555261,0.024015445,0.006319278,0.014962436,-0.05572745,-0.019660443,-0.034771662,0.008441129,-0.015702307,-0.007967696,-0.009080054,-0.003920382,-0.037443638,-0.07213377,-0.059976246,0.06921571,-0.027247809,-0.063490525,-0.041694455,0.06626877,0.042941764,0.014898361,-0.014005012,-0.015052046,-0.0092422,0.073159754,0.022732595,-0.07367796,-0.015382796,-0.0059165014,0.024214154,0.006998335,-0.03523353,0.01343291,-0.040767297,0.041367147,-0.014201999,-0.018489594,0.036652714,-0.044526175,-0.031503804,0.018183094,-0.01970667,-0.05906394,-0.08272694,0.0037326901,-0.012612698,-0.023100115,-0.06318449,-0.026968844,-0.031982332,0.015039222,0.05041067,0.038938478,0.0028457325,0.08974928,0.06601982,0.013656416,0.051388346,0.027124604,0.005090932,0.032598704,-0.03505288,0.07702515,0.07814298,0.09038287,0.09673505,-0.046647534,0.046107575,0.015116202,0.035183758,0.053693954,-0.012218545,-0.030035472,0.026238807,0.017645871,0.0635709,-0.015576377,0.010952732,-0.0668517,0.030944707,-0.03302433,0.039689925,0.052941076,-0.009360515,0.008761184,0.0034817415,0.0011064957,0.04037628,0.07320628,0.08011069,0.037759088,-0.013135202,-0.020704055,-0.034247234,0.092082106,0.038785093,-0.088063814,-0.012477245,-0.049800362,-0.052102022,-0.08625615,-0.0719722,-0.0063939523,0.039851967,-0.041997537,0.0017455466,0.065362245,-0.023286108,-0.07922997,0.001503537,-0.061832976,-0.06742079,-0.052412715,-0.0037942536,0.046382133,0.011386896,-0.048660014,0.004452664,-0.07554959,-0.035664015,-0.004804058,-0.04753887,-0.06495918,-0.015409047,-0.038362343,0.07183717,0.08001461,0.02591699,-0.035089787,-0.0024060505,-0.07354517,0.04550585,0.02787469,0.03488928,0.037704945,0.04524813,-0.008363882,0.022051413,0.09477749,0.015683215,0.09419694,-0.08053133,-0.02281817,-0.04893393,-0.04548735,-0.013390165,-0.02768432,0.009549741,0.07137858,0.024967,0.08124036,0.053073537,0.026273431,-0.09094959,-0.050675232,-0.06958689},
{-0.04417023,-0.011280434,0.009253121,0.030705417,0.04039938,-0.010452764,-0.009798715,0.0041060965,-0.04507216,0.02669137,-0.016720274,-0.017987184,0.015491415,-0.005369181,0.017971257,0.04477682,0.031047074,0.007840057,-0.042557463,-0.023740202,-0.046143934,-0.0024571293,0.040003862,0.011057759,0.062409393,-0.023793515,0.034687757,-0.032216128,0.037177034,0.02876126,-0.033615313,-0.031336855,-0.03986614,0.00094771467,0.025462177,0.0485779,-0.009333281,-0.04105354,0.05447873,-0.020631444,-0.010509859,0.056539916,0.045196075,0.02340505,-0.03248225,-0.021950826,-0.039034277,-0.012123361,0.052266028,-0.007927865,0.02617497,0.013987627,-0.0058621387,0.07502736,0.04358662,-0.046924725,-0.031355593,0.03601947,0.00717604,-0.018733429,0.023636436,0.024354769,-0.016092593,0.04271963,-0.03701874,0.031532787,0.0090949135,-0.021285327,-0.018505752,-0.05469471,-0.063070856,0.05474407,-0.022505913,-0.022631956,-0.057954703,-0.022133753,-0.0052972822,-0.020867452,0.021153035,0.033524975,-0.015288905,-0.016882319,-0.036020827,-0.02327609,-0.0108846715,-0.05199077,0.007846456,0.0040060533,-0.020060373,-0.066916555,0.007235619,0.0005235528,0.041869793,-0.02920981,-0.022162447,-0.041127995,0.008835499,-0.029202413,0.0397813,-0.011984972,-0.032419372,-0.00534941,0.009364072,-0.026648447,0.022016717,-0.021743407,7.5874326e-05,-0.008493947,-0.0030031693,0.008808546,-0.03325557,-0.014242045,0.013058449,-0.021813605,-0.008165185,0.04656699,0.031052077,0.018538851,0.046335038,0.0061577507,-0.009570764,0.008019035,0.015495065,0.046539016,0.04471178,-0.0065990626,-0.022690762,-0.010043306,-0.0326616,-0.036779713,-0.025012473,-0.0060037444,-0.022517942,-0.011306868,-0.032004718,0.0035615345,0.005373031,-0.021761805,-0.0041899285,-0.0011924433,0.0053028907,0.00032828766,0.0010356267,-0.00089185796,-0.035788007,-0.013705601,0.050164044,-0.0070955916,-0.011157947,-0.024855908,0.027873669,-0.011058862,-0.026935011,0.047458302,-0.020033997,-0.029218199,-0.013798402,-0.008852537,-0.025573626,-0.046358638,-0.030691925,-0.038345713,-0.0060709254,0.044802424,-0.03444077,0.02690256,0.05464114,0.030824775,0.054069486,0.02630991,-0.048547905,0.035153754,-0.004204445,0.0052917646,0.023496209,-0.0013562974,-0.048618805,0.02950304,-0.018661203,-0.026523493,-0.059411887,-0.006762366,-0.012011286,-0.046863664,0.058425535,-0.017564554,-0.04397073,0.049697712,0.05558718,-0.008778793,-0.03658387,-0.0332827,-0.022334963,0.019231353,-0.0060529513,-0.012657488,-0.0120336935,-0.031358305,0.024244929,-0.0329779,-0.023678789,0.004588383,0.031662088,0.016301671,-0.053609256,-0.03247667,-0.029780593,-0.022227965,-0.02646123,0.045700908,-0.0029087802,0.0025530735,-0.011999823,-0.014187823,-0.02119478,0.009306794,-0.014873134,-0.0038031146,-0.03789998,0.03135979,-0.017557774,-0.013443305,-0.0010121607,-0.023957355,0.03308534,-0.050813455,0.013383647,8.279973e-05,0.014020856,0.04671014,-0.029960569,-0.018973274,-0.0053750095,0.040758498,-0.026532473,0.019271225,-0.035082508,-0.0086442465,-0.023229346,0.013939133,-0.032222282,-0.013315568,0.05879405,-0.062349655,0.028979601,-0.01686842,-0.019623417,0.019697197,0.06756934,-5.3817013e-05},
{0.022315472,0.04844411,0.0092237,0.05120548,-0.055624872,0.0023847758,-0.0019218175,0.02309305,-0.03469418,-0.07571503,0.0068226205,-0.012510647,-0.036999274,-0.046082478,-0.045779295,0.059739225,-0.033586577,0.021656191,0.006792716,-0.034752138,0.065588824,-0.011996766,0.02679205,0.08352456,0.02233082,0.022159096,0.018733483,0.05381089,0.05378038,-0.031918135,-0.018930728,-0.0037748925,0.06677139,-0.02824709,0.042933553,-0.057302848,0.020224659,0.020441333,-0.0026127193,0.017917162,-0.016617188,0.00951414,0.031253565,0.035934538,-0.018714663,-0.04845232,-0.05417182,-0.007515168,0.019337434,0.037382893,0.07132851,0.031132042,0.06883006,0.004479634,-0.042188864,0.02507725,0.08052294,0.03832158,0.002855995,0.091873415,0.0049122972,-0.039798766,0.027565422,0.02047461,0.045289796,0.057304665,-0.021404417,-0.005691204,0.049291912,0.061666463,-0.021197753,0.03606306,0.0519097,-0.02473906,-0.03729321,0.060742192,0.05605619,0.014503371,0.006249279,-0.062233675,0.032552477,0.024686275,-0.016666163,0.003541735,-0.015806066,0.009457796,-0.025095083,0.026358595,0.07725058,0.060260113,0.09898709,0.10396071,0.062134705,0.056951743,0.03309782,0.060522746,0.0070385733,0.056278743,-0.018641308,-0.050336838,0.0041142767,0.0913353,-0.031630974,0.030229015,-0.026535828,0.00880118,0.022321502,-0.016821355,-0.017392883,-0.019921467,0.061817005,-0.017189609,0.016697472,0.03043815,-0.011526558,0.021714497,0.034723695,0.052778117,0.06546526,-0.012766921,-0.009817311,-0.041601367,0.010390491,-0.02894398,-0.008724871,0.031303972,-0.05157169,-0.0788804,0.028232703,-0.029167077,-0.05548846,-0.02819027,0.045301385,0.060546383,0.06270859,-0.02787025,0.032114923,0.027897516,-0.036569178,0.028298896,0.04425257,0.041553892,-0.0868527,-0.061950773,0.01571062,-0.037102878,0.011171664,-0.04470167,-0.051128563,0.006101745,0.014333808,0.032788523,0.034416806,-0.053429995,-0.046871606,-0.03747092,0.0018341928,0.084318124,0.04497377,0.07168624,0.06407848,-0.0008367834,-0.015294682,-0.013520067,0.0368509,0.0356299,-0.031527925,-0.0034122602,0.045368746,-0.01271731,-0.042668324,0.02682364,-0.0046205805,-0.022324564,0.07397615,-0.015563198,0.066233836,0.07380888,-0.05291527,0.057338655,-0.06513821,0.012932665,0.03998544,0.023380298,0.057931926,-0.024690542,-0.000905955,0.0033375486,0.050273485,0.061449196,0.0214729,0.004869722,-0.017208507,-0.03828438,-0.056638397,0.04910264,-0.027394403,0.009825096,-0.036567204,-0.043316633,0.009145453,0.0316054,0.04986121,-0.05602267,0.07213667,-0.048160557,-0.04429213,-0.018647803,0.0049214615,0.04337862,0.052756734,0.031309165,-0.04718066,-0.02483224,-0.07409661,-0.004013086,0.013260385,-0.037504826,-0.0586892,-0.07441972,0.04660489,-0.015209393,-0.07775033,0.002426538,-0.022689547,-0.036621578,-0.018060952,-0.014998,-0.06479721,-0.07371432,0.0640759,-0.008088177,-0.021612393,0.03054264,-0.04608285,0.008115633,-0.0076408307,-0.060938198,0.030301077,-0.008537287,0.06681224,-0.050211765,-0.011313905,-0.040282976,0.051319458,0.048365884,0.08779105,0.03980087,0.023385515,0.027624728},
{-0.013679496,0.009188401,0.000666897,-0.051311884,-0.022723107,0.05326855,0.057336055,0.01253085,0.028769014,-0.041007135,0.034167998,-0.024555553,-0.03193118,0.0487165,0.007928365,0.031199995,0.021483628,0.08605282,-0.0038767064,-0.002208203,0.026757754,0.024883362,-0.034854233,-0.0073987474,0.06242298,0.02927829,0.012816952,-0.039321493,-0.049631976,0.049057156,0.033394728,0.03713118,-0.007933257,0.04260847,-0.05324428,0.059195057,-0.024291199,0.0019045974,0.0876239,0.021993706,0.0008839396,-0.018021358,0.025366826,0.043833505,0.02384116,0.076089606,0.020078992,0.05614258,-0.039543137,0.02548646,0.014696431,0.01586235,-0.05839797,0.027683498,-0.046250794,0.02605955,0.030599372,0.09192569,0.051166054,-0.023743123,0.08201326,0.050351597,0.053128332,-0.005579691,0.056544527,-0.008241483,-0.03102067,0.00020163294,0.07837301,0.08912774,-0.0054667587,0.049024142,0.00077200565,-0.00830067,0.007540534,0.035649266,0.03839627,0.061405182,-0.039480336,-0.0123810265,-0.02428401,0.0115049565,0.034836672,0.082184196,-0.0294224,0.04012535,0.035108857,0.03261026,0.03147174,0.0768064,0.09989014,0.004234167,0.02423719,0.021227188,0.07343646,0.032506786,-0.003148963,0.0050031743,0.013696083,0.054101374,0.026791083,0.0036253796,0.039933335,0.030431848,0.054141138,0.00025206935,0.067719445,-0.012271776,-0.019472478,0.057330377,-0.036548268,0.042707585,-0.007943083,0.07018055,0.025336117,0.05505279,-0.008103431,0.07244824,0.04471612,0.051522437,-0.017905235,-0.016146041,0.074282266,-0.0147181945,0.097963795,-0.017587569,-0.061745115,-0.033161208,0.07006336,-0.042113587,0.023145977,-0.033448532,0.018672915,-0.033160016,-0.02216146,0.062043276,-0.04868941,0.010089504,-0.003349003,0.049465794,-0.030577272,0.050132893,0.011268973,-0.01366129,0.032304846,-0.06192869,0.061424505,0.051064257,-0.018854963,0.049315307,0.04708992,-0.067992605,-0.080113426,-0.07238659,0.010344722,0.08433438,-0.042979755,-0.017669048,0.04007161,-0.04034245,-0.002043201,0.027907822,0.059684902,0.014036873,0.056370966,0.000669725,0.017254284,0.03679852,0.0702326,-0.0165991,0.018032886,0.037507016,-0.009481878,-0.018770888,0.006534712,-0.027274732,0.016907776,0.041771118,0.014536081,0.07016148,-0.06127502,0.007950428,-0.005335195,0.082076624,0.09500199,0.03128732,-0.0060926173,-0.0281129,0.013546633,0.023293825,0.041093852,-0.009334597,0.019217381,-0.048552196,-0.05521959,-0.04740818,-0.05036908,-0.04299002,0.063698895,-0.0051719127,-0.024069361,0.0010101707,-0.02961717,0.05565356,-0.05925535,0.029814372,-0.005278419,0.019022403,-0.06459244,0.04758427,0.06014131,0.0804766,0.005577404,0.0037742362,-0.031025939,0.024054835,0.05047237,0.05106938,-0.008469269,-0.01190584,-0.0497373,-0.044656735,-0.046947207,-0.005826205,0.035157707,-0.0048559047,-0.04344659,0.013296977,-0.0119947465,-0.035990316,-0.04540209,0.030787308,-0.049077727,-0.0076305005,0.0065948064,0.044408273,0.010741262,0.02647147,0.012249101,0.060684603,0.059313845,0.018573904,-0.032250386,0.08400693,0.09725507,-0.0010904984,0.018424397,0.053302135,0.017441187,0.027775558},
{0.010842245,-0.0046252958,0.005875208,0.08214291,0.086080536,0.01516946,-0.0038076977,-0.0482015,-0.045880273,-0.021897258,0.021196801,-0.032599792,-0.039433647,-0.054067336,-0.03027577,0.038908344,-0.06080532,-0.002887032,0.04333669,-0.036407176,0.0017004707,0.044453546,-0.06270185,0.018311989,-0.0652222,0.055344462,0.053007223,0.0043268213,0.06006892,-0.025268257,0.027421854,0.015562081,-0.06469757,0.038678512,0.034466147,0.0069896164,-0.05899952,-0.0418954,0.017354202,-0.04068461,-0.016845835,-0.030791702,0.082585394,0.011806985,-0.027258785,0.016858833,0.024475828,-0.013917761,0.06287789,-0.032969035,-0.008141936,-0.009989156,0.061301533,0.013221647,-0.014478721,-0.008959093,0.067722805,0.017648065,0.00582108,-0.0503079,-0.024745153,0.010139738,-0.024393374,0.083418936,-0.00087862683,-0.0093832305,0.07798213,0.06385008,-0.046293877,0.0026226444,0.02593885,0.06325815,-0.02092015,0.0013889687,-0.0040640077,-0.0030487252,0.040533036,0.031590287,0.05055216,0.014641763,-0.016995713,-0.050537728,0.019714054,0.0418815,-0.039637852,0.064076364,0.07215046,0.04880099,0.08989832,0.003346138,0.017016105,0.042898543,0.058073968,-0.019105492,0.03953284,-0.03696281,0.051025897,0.048391555,0.020656476,0.003129486,0.08927188,0.01552971,0.005967863,0.05271779,0.054201443,-0.063416384,-0.05336085,-0.0032020833,-0.05359657,-0.023079947,-0.040137984,0.039764587,0.045825604,0.041365404,0.04319509,0.07366091,-0.007929746,0.0075082737,0.07844945,-0.0107878875,0.04365419,-0.021312136,-0.017200656,0.009658235,0.0007247284,-0.035709184,0.07707456,-0.017073657,-0.04449086,0.015002203,-0.05642552,0.06589111,0.02113065,0.067527145,0.00017619604,-0.061289273,-0.02902762,-0.010552717,-0.06801529,0.004354224,-0.02965029,-0.0045609167,-0.03190603,0.0143831195,-0.023996329,-0.0418411,-0.012560554,-0.031520884,-0.01982804,-0.020877223,0.036895536,-0.02542343,-0.024757585,-0.022333737,0.02331498,0.014654442,0.06310178,0.008282791,0.041082703,0.0024337266,-0.06817685,-0.009849333,-0.06588967,-0.039168313,0.022172451,0.015895981,0.002563729,0.065007806,-0.025171308,0.008738453,-0.04045724,-0.025508856,0.032702737,0.072895326,0.032863587,0.038558643,-0.056621563,0.050159395,-0.023002444,0.042847957,-0.015652426,0.035106122,-0.011619456,-0.008516837,0.02866162,-0.06839528,-0.024149708,0.019160142,0.07296102,-0.003920874,-0.054766208,0.03365533,-0.024349658,-0.038000476,-0.023340063,-0.048272945,-0.026499009,0.0132126985,-0.0018233373,0.040179525,0.056091707,0.03224542,0.014889453,0.040685244,0.025694469,-0.023917153,-0.03257125,0.041910104,-0.033090033,-0.079405084,0.00377768,0.08853148,0.07302929,0.029727254,0.043792333,-0.023600984,0.035143603,0.02608788,0.002044818,-0.06666003,-0.018578682,0.01031714,0.013796058,-0.043037336,0.022332612,0.07310881,0.0078706825,0.031147266,0.08600106,0.0025155828,0.08584715,-0.022917848,0.018866807,-0.012630561,0.06304693,-0.08063739,-0.07768622,0.02045472,0.0103350915,-0.0901332,0.051539138,0.03553429,0.013696749,0.014710406,-0.07645289,0.006263301,-0.009541988,0.032554805,0.03676098,-0.05574507},
{0.006114969,-0.008600478,0.031729717,0.03850762,0.08260422,0.00871296,0.038209945,0.0074336156,0.044017892,0.05700418,-0.029482443,-0.00027843798,-0.0031029843,0.017980376,0.01966288,0.0048059295,0.023040071,-0.008438025,0.060986497,0.03202497,-0.010257029,0.011266427,-0.0487535,0.05739385,-0.030370068,0.04990884,0.0053046835,-0.043642756,0.036140583,0.04728558,0.0015776388,0.03612132,-0.0011332515,0.057961892,0.026004286,0.0137203,0.014744307,0.021817816,-0.08182098,-0.08065458,0.016013177,0.0041803475,0.013962314,0.04406997,-0.024453908,-0.0508487,-0.049815957,0.059849516,-0.04502094,-0.06311013,-0.07447999,0.03486747,-0.029845012,-0.06336874,-0.050460793,-0.04622169,0.031803034,0.013699167,0.030113861,0.060314607,-0.07597808,-0.06743577,-0.029302718,0.031669766,0.04289592,-0.0072491327,-0.053011253,0.051124312,0.038022973,-0.047085505,0.057861876,0.008019263,0.005850167,0.05266887,0.018184016,0.040166542,-0.019475631,0.037231438,0.059975583,0.07221089,0.024867188,0.0041704606,-0.012244943,-0.06341307,0.059379764,-0.0022973246,-0.030817809,-0.035250116,-0.005968254,0.058656454,-0.02423032,-0.051285762,0.010310361,0.05021262,0.0047235573,0.007977811,-0.038502496,0.018905088,0.022798894,0.01739369,0.06933164,0.08011327,0.0130319735,-0.027908852,0.05945185,-0.00011816243,0.050584666,0.0010414218,-0.023152504,-0.038485568,-0.08598642,-0.024603363,-0.06769622,-0.029552542,-0.06148312,-0.050324008,-0.048569206,-0.08106618,-0.025184039,-0.0007051034,0.035458602,0.0067931926,-0.022075234,-0.03415316,0.03367233,0.05207438,0.042768233,0.014080281,0.024794677,-0.024421824,0.049617723,-0.048171625,0.038469173,-0.07336373,0.01001982,0.01092664,-0.030748371,-0.010263355,0.027889276,0.043241236,-0.06031327,0.016031984,-0.013497203,-0.0554148,-0.023489242,-0.035721593,0.030090341,0.056501877,0.011472731,0.05559691,-0.012049041,0.0064734514,0.014521227,-0.029089343,-0.06485705,-0.016187906,0.08160332,0.07661577,0.06285368,-0.01596067,-0.051901087,-0.018187491,-0.04066741,0.024505893,-0.014343134,-0.06638717,-0.045317132,-0.009957991,0.055380587,-0.016805777,-0.0116778705,0.0011149875,0.031227969,-0.018414628,-0.0559485,0.054091964,-0.048251256,-0.0117461495,0.051045537,0.01820446,0.026476078,0.03464661,-0.036058206,-0.059509315,0.024408646,0.028138656,-0.011710013,-0.06621226,0.005170777,0.039908834,-0.022848379,0.03055354,0.015582582,0.0149182975,-0.02189832,-0.048544653,0.013879064,-0.0298804,-0.03293239,0.012318473,-0.015336301,0.063119836,0.024509579,-0.012769568,-0.021351837,0.017845651,0.034054,0.011361155,-0.03371201,-0.061089765,0.0028283442,0.013002946,0.043736037,-0.029961793,0.0197076,0.02042423,-0.03752374,0.021472858,-0.023464156,-0.037798434,0.02694235,-0.016512481,0.032650314,-0.029795632,-0.060145576,-0.031970162,0.009133211,-0.053284105,-0.014045421,0.033172876,0.053358935,0.021474477,0.06560676,0.034786068,0.09455852,-0.06375146,0.019162353,-0.02536399,0.0147717055,0.0072762785,0.022268448,-0.029138085,-0.0010227464,0.054807507,0.045554135,-0.039617192,-0.031792354,-0.042159278,0.07898067,0.065918475},
{0.017513156,-0.019278307,-0.02441941,0.08001333,0.008477522,-0.05950987,-0.021324575,0.017862134,0.072614044,0.08879078,-0.041973162,-0.046992928,0.06414854,0.0131181395,0.07084132,0.040938795,0.01161389,0.062339313,0.08480418,0.055839293,0.06470716,0.032457627,0.062415365,0.041821413,0.004690172,-0.057858877,0.032311793,0.034094084,0.07426044,-0.004533897,-0.08315807,-0.029573968,0.049497534,-0.03629303,-0.008494455,0.040760707,-0.011320191,-0.01093462,-0.06221675,0.0073084114,0.03002001,0.04552706,0.004740141,0.018930387,-0.024330374,-0.014921241,0.06397428,0.017368412,-0.04810151,-0.024476899,0.02480196,0.041911118,-0.06529561,-0.030206779,0.0029154578,-0.04218831,-0.06027439,0.030119956,-0.022799883,-0.062180936,0.022173831,0.00506468,0.041712705,-0.048342425,0.047089867,-0.032743007,0.058424894,0.015411821,0.07683558,0.02674629,0.05140505,-0.018916702,0.02700849,0.072712585,-0.0057987534,0.036770895,-0.02863201,0.006928076,0.018687086,-0.0480348,0.051440127,0.015664278,0.017779823,0.013933184,-0.01102297,-0.020104105,-0.050325196,-0.011612805,0.057518918,0.029695362,0.038677383,-0.010088847,0.051510703,0.044203456,0.07221311,-0.020567896,0.030243995,-0.014559911,-0.037059773,-0.006780263,0.052206818,0.03583238,0.027252408,-0.011504468,0.00694924,-0.05828666,-0.05964606,0.011003317,0.019205691,-0.02090589,-0.056632254,-0.0037632743,-0.026566328,-0.025924297,-0.0010070412,-0.013711043,0.03422919,0.047593307,0.060436923,-0.0017448026,-0.029868964,0.06441742,-0.0029215089,0.016771307,0.06205041,0.08659601,0.06275334,-0.077912994,-0.04551429,-0.005938776,-0.042825293,-0.043576498,-0.07897716,-0.012606954,0.08724524,-0.03347195,-0.024989288,-0.023865698,0.04226247,0.051753566,0.029097721,-0.046466723,-0.044049125,-0.031631637,0.047247082,-0.05579936,0.0061395033,-0.024456441,-0.013603872,0.045188557,-0.08157126,0.003738993,-0.04202607,0.019773385,-0.025985543,-0.06496418,-0.025756402,-0.0040458995,0.07741057,-0.022598898,-0.03837891,-0.023141595,0.014178462,-0.008144448,0.05443859,-0.044077188,-0.0011639814,0.037340663,-0.051375806,0.05471671,-0.0055172183,0.0027045198,-0.0010468639,0.04715645,0.037077636,-0.015601435,0.027866744,0.072263345,-0.024422375,0.0046908427,-0.0197385,-0.028937805,-0.035274904,0.062394153,0.027940644,0.03987853,0.04717917,0.0592083,0.07433901,0.05139818,-0.0018718797,-0.008934281,-0.017001696,-0.03962287,0.0068250652,0.017455403,-0.038277347,-0.026864195,0.044404387,0.024394976,-0.01692193,0.012425536,0.029107902,0.06168193,-0.021289961,0.07570023,-0.0064712353,-0.018238708,0.035102945,-0.054749586,-0.0639067,0.022416692,0.0027058849,0.04504457,-0.020921608,-0.016251536,-0.038030386,-0.06300352,-0.055207267,-0.013192598,0.010663037,-0.047845084,-0.07762733,-0.00868385,0.07811343,-0.07818829,0.010869119,-0.054153375,-0.010325237,-0.011673068,-0.09130362,0.0067503755,0.049820554,0.06048674,0.05050184,-0.009845601,-0.0726769,-0.00416657,-0.019480618,-0.029919645,-0.035750553,0.04432897,-0.02075979,-0.03229472,0.0061354353,-0.029959962,0.006299085,0.040554814,0.008440971,0.06297663},
{0.087512404,0.008515095,-0.013561661,-0.00023568465,0.009541237,0.017976401,0.0498186,0.008337604,-0.0006937938,0.02588954,0.03730159,0.028680276,0.035555027,-0.02786276,0.032698113,0.004326242,0.03230532,-0.03312809,-0.06368342,0.06494124,0.017835544,-0.018965112,0.018089255,-0.062228493,0.046058338,-0.02511793,-0.029196497,-0.057182897,-0.011185611,0.10164838,-0.03427896,-0.07688129,0.0337892,0.009305704,0.0017621825,-0.021560572,-0.040068723,-0.039104633,-0.066039346,-0.04713059,-0.0642586,-0.047867734,-0.07941217,-0.03386123,0.047729652,-0.064771324,-0.052794833,-0.07578067,-0.03367755,-0.050237145,0.018521281,0.0650437,-0.02337696,0.05272618,0.0733645,-0.046876553,-0.032947466,-0.013636452,0.021576922,0.09042147,0.0651552,0.031973295,0.044732045,0.06670236,0.039518785,0.059469577,-0.044295788,0.044560123,-0.0027618888,0.057088573,0.06330386,0.0341997,0.0764276,-0.03660427,0.06477272,0.03590587,-0.043454856,0.0045584617,0.09445465,0.046756294,-0.057223048,-0.044028837,0.0031386751,-0.013401934,0.022252856,0.0033032105,0.02076382,0.0194706,0.042976245,0.010629201,-0.023171524,0.060305327,-0.017108994,0.04018756,0.014177196,-0.020370852,0.05090601,0.037978403,-0.022910504,-0.01360064,0.06375415,0.09685883,0.06371543,0.025638957,0.080735154,0.038534317,0.0669358,0.011606128,0.07490261,0.055567846,-0.030868705,-0.008721367,-0.012004316,-0.02184906,0.03745483,0.022357835,-0.041892666,0.05069342,-0.010343575,0.0040403833,-0.052929774,-0.014423372,-0.057640318,-0.039223846,-0.05662997,-0.00259495,0.058467846,0.07893373,0.014562312,0.0012039656,-0.011810873,0.014826107,0.03202161,0.0923865,-0.010432312,0.078088164,0.0034947433,0.008422393,0.04117598,-0.027356718,-0.036279537,-0.022982636,0.0063412236,-0.06059045,-0.024964392,0.024486478,-0.037542116,0.03171164,0.044370737,0.009399865,-0.0065755327,-0.017887497,-0.061421797,0.028335532,0.025419666,0.020115983,0.072150774,-0.022741191,0.06855801,0.012873716,-0.029753227,-0.06743198,-0.048381932,-0.028779034,-0.06560316,0.017281685,-0.024474768,0.017006673,-0.024009956,0.03525226,0.02067304,-0.08938563,-0.033306886,0.004985434,0.014659741,-0.03701604,-0.035682693,-0.023292394,-0.013739867,0.041412264,0.076887816,0.069306664,0.034495037,0.059087757,0.039754994,0.033286657,0.05642268,-0.0061926,0.015486765,0.0011120867,0.026857385,0.0578359,0.040767547,0.020719307,-0.052750774,-0.04120178,-0.034020238,0.08066752,0.011306451,-0.04593443,-0.011899016,-0.030378127,-0.004850854,0.07498242,-0.028034402,-0.006716066,0.048403326,-0.032157477,0.07181772,0.05522358,0.0012371384,-0.027524618,0.048036784,0.05364175,0.07253381,-0.01619962,0.018099247,0.082272395,0.066733636,0.03099411,-0.0036544632,0.06989765,0.006469605,0.014288056,0.02882061,0.03504298,0.06972465,0.04681633,-0.011760374,0.084429726,0.0074574095,0.02335557,0.018714523,0.08523265,0.10079552,0.009846011,-0.0065984116,-0.06467476,-0.022950705,0.0040083057,0.055075407,0.0038341018,0.019760408,-0.054152943,0.08230943,0.013848301,0.051690497,-0.034949113,0.054569058,0.081883214},
{0.06332314,-0.042765908,0.006765461,-0.042478766,-0.00037544352,0.02675134,0.04863749,0.016071813,-0.015445921,-0.038542237,-0.02998771,-0.04669941,0.042833395,0.02562717,0.057694145,-0.041148163,-0.017894654,0.043646686,-0.004149513,0.0022150138,-0.033266503,-0.00077690417,-0.04098568,0.021523442,-0.078686565,-0.04778026,0.059617,-0.045621686,0.01677059,0.005705429,-0.049875747,-0.015428708,0.08824386,0.017891128,0.06980113,-0.03456818,0.03654154,0.05733454,0.044278916,-0.0520159,-0.041394092,-0.005335786,-0.0050781327,-0.025679648,0.028792616,0.0715499,0.05222094,0.047419675,0.05450633,0.013293271,-0.0066451333,0.021807965,0.01633757,-0.04462188,-0.009139568,0.0208181,0.038350314,0.045115378,0.079981685,0.038543668,-0.011796358,-0.07791489,-0.040998228,-0.00891379,-0.027611552,-0.03546638,-0.019088814,-0.07291055,-0.01774661,-0.02886198,-0.07249431,0.03660356,0.02367404,-0.009513932,0.0077703535,0.05171162,-0.039609242,-0.022092909,-0.054562625,0.074717805,0.019633858,0.061968394,0.011459804,0.010532538,-0.021915901,-0.032003414,0.052632377,0.030817438,-0.056692697,-0.02316014,0.04855637,-0.030149942,0.018936453,0.029588435,-0.03886487,0.008113619,-0.038091823,0.028871654,-0.008881409,-0.04090796,-0.025471779,0.08270446,0.055012483,0.057537306,0.025684198,-0.031010306,0.0204694,-0.025863068,0.04806958,-0.05480507,-0.041151762,0.013194207,-0.0824389,0.019801797,-0.042226866,0.011073965,0.051000193,0.04818918,0.05815811,-0.040174246,-0.013920249,0.07268529,-0.0491977,0.070541814,-0.054099523,-0.039686635,-0.029409302,-0.05303942,-0.01835917,-0.033566073,-0.02323515,-0.056111887,-0.041848473,-0.009503979,-0.028540013,-0.04329886,-0.03365229,0.0025234434,0.034062386,0.05227975,-0.018083962,0.047886163,0.022339264,0.027915936,0.008909433,0.08219918,0.080028854,-0.036795173,-0.057553172,0.038370475,0.07084758,0.025486514,-0.053648777,-0.04452662,0.054051798,0.045474786,0.027045473,0.024062522,0.04942782,-0.019011816,-0.04077688,-0.041484397,0.06297322,0.0724874,0.039145835,-0.061301045,-0.030685764,-0.05113271,0.032761067,0.05035118,-0.04907741,-0.015798034,0.026150174,0.040831286,0.0026434711,0.032875333,0.054149926,0.07586249,0.052598946,0.04178613,0.0045196377,0.05544833,-0.05482794,-0.018090436,-0.036422163,0.05519225,-0.031231757,-0.054742053,0.03127564,0.056657236,-0.050888214,0.013208567,0.043033734,-0.018432131,0.07407804,0.04943969,0.046088412,0.012110314,-0.030752495,-0.020470453,-0.051488277,0.05335126,0.052849576,-0.03448289,0.020336898,-0.02490401,0.020173283,-0.027648043,0.049051844,0.075048104,-0.0027312364,0.059712734,0.0012522179,0.019454908,-0.0033149456,0.042207785,-0.0036246246,0.032171547,-0.0035132752,0.06264378,0.013453843,-0.06480264,0.077765755,0.022068875,0.07272406,-0.01757344,0.035175074,0.018980622,0.0014062715,-0.009831715,0.025608484,0.012369695,-0.015283408,0.061286356,0.022136657,-0.050585665,0.045278315,0.012956471,-0.015377713,0.058919195,-0.06585854,0.02495086,0.050887533,-0.0473231,-0.054018103,0.060564354,0.01749799,0.05716305,-0.035558976,0.018430443},
{0.013594883,-0.01985743,0.051001627,0.03736326,0.0078116,-0.063559994,0.0092962,-0.055908255,-0.026987987,0.030418469,-0.057183184,0.016765285,-0.017448887,0.00052074296,0.003288493,0.01864296,0.035139788,0.02340983,0.013084023,0.010298289,-0.03110018,-0.07042032,-0.047546588,-0.011605681,-0.004312713,-0.007000373,0.06878086,0.009067509,-0.034979798,-0.01938565,0.03139434,0.019387133,0.0598293,0.06009081,0.009758807,0.055743158,0.0054392563,0.0010964503,0.022965362,-0.029836131,0.016228013,0.029311834,0.05841745,-0.014064164,0.091180615,-0.033449933,0.036413386,0.05253446,0.047208864,0.029452909,-0.039228216,-0.058513876,0.012310702,0.021151286,-0.078689806,-0.033364482,-0.03355515,-0.032381702,0.038254727,-0.06452658,0.010915377,-0.062507465,-0.03663755,0.0043825284,-0.002536518,0.052730214,0.05379885,0.033954076,0.043464728,0.02218629,-0.009531229,0.06838346,0.019218996,-0.029560558,-0.0057355408,-0.004196277,-0.05775953,-0.07738339,-0.045607645,0.016118843,-0.074647434,-0.03649819,0.012251065,-0.00027932622,-0.06450814,0.0035647014,-0.062329162,0.034627873,-0.06811249,-0.090830676,-0.007870542,-0.013974191,0.045224227,-0.058130935,0.02532271,0.040703088,-0.04793271,-0.022455385,0.02201231,-0.06116189,0.0056381095,0.041077115,-0.041449778,0.045899466,-0.035183992,0.005994984,0.021091336,-0.029675951,-0.017786715,0.007521414,0.028551428,0.022415789,0.031117389,-0.08183727,-0.089532636,-0.013377171,-0.01888442,-0.0049620545,-0.018226996,0.031052476,0.032344837,-0.018418828,0.0068181115,0.014270718,0.021487972,0.022458026,0.027801495,0.0008105363,-0.0013860618,0.01348145,-0.041028544,0.03796118,-0.023824785,0.031781875,-0.06103112,0.01006008,0.0023967712,0.019126851,-0.01220968,0.055070188,0.077315256,-0.044169165,-0.039490364,0.025370223,-0.06551478,0.011216117,-0.017107708,0.032489087,0.0075578457,0.04074391,0.06294637,0.07276328,-0.025625814,0.07032887,0.043434612,0.059996977,-0.0017552167,-0.027111877,0.045338564,-0.0036134562,-0.03132977,-0.064071566,0.04305444,-0.049619403,0.034885928,-0.034048405,0.03891983,-0.01713966,0.014550637,-0.07167324,0.031160029,0.073098905,0.037650798,-0.042038236,0.02968328,0.022488272,0.0032034265,-0.027770048,-0.01884596,0.071902685,-0.0037980368,0.07285392,0.067656234,0.05566487,-0.015604485,-0.002251431,0.050566405,-0.024790619,-0.029174116,0.066890806,0.06132625,-0.021501308,0.040031012,0.00056176656,0.027508158,-0.07265453,-0.0005245287,-0.022942709,-0.04149788,0.017438762,-0.010748912,0.007918222,-0.0494871,-0.056818366,0.020976057,0.028739968,0.024535194,0.07691332,-0.020216517,0.036990155,0.053389248,0.05618998,-0.025138747,-0.048953954,-0.002900099,-0.019256165,-0.029788267,0.08286116,0.0114875,-0.031207377,0.034001198,0.06639156,-0.04698086,-0.01825752,-0.036747653,0.08066216,0.058819324,0.0533569,0.022838682,0.05834753,0.0125107765,-0.06657318,0.025766486,0.0022244344,-0.068229266,-0.07809805,-0.054048266,-0.03137566,-0.08267881,-0.075815246,0.04687191,0.0328876,-0.0308466,-0.032291636,-0.037378356,0.08339352,0.023739312,-0.0031554373,-0.08043164,-0.068296626},
{-0.02799008,0.06746609,-0.015850285,-0.0105366465,-0.003659971,0.06822552,0.0034396113,0.057451084,-0.02281707,-0.010854306,0.07976789,-0.020784723,0.06939436,0.011448747,-0.07746973,-0.0074783033,0.07580048,0.06272688,0.039711248,-0.01490696,0.06883515,0.08333502,0.08689931,-0.02960387,0.06420216,0.056541994,-0.024928397,-0.0013269767,-0.029727908,0.03327332,0.063714154,0.04868369,-0.034842167,-0.028714376,0.043142695,0.006832417,0.002826832,-0.027342612,-0.07976959,0.02513721,0.06918045,0.03242918,0.046218727,-0.015716046,-0.013045022,0.0013295047,-0.0018806318,0.058924004,0.0016910885,0.01485774,0.034643743,-0.0052178577,-0.056866698,-0.079705626,0.0019220234,-0.017037317,0.060189404,0.02243076,0.0060147336,-0.046367534,0.03413558,0.004050502,-0.028991258,-0.043112054,0.0007679623,0.060702033,0.06358951,0.07075314,-0.011637542,0.014194113,0.060715172,0.057958327,-0.018852763,0.027432714,0.060088113,-0.0043015904,0.017072296,0.03746394,-0.05100636,-0.09455354,-0.032868315,-0.082916826,0.00094263465,-0.00012639919,-0.032303665,0.04888257,0.04683734,0.036629338,0.034553863,0.07602954,0.08903203,0.07853288,0.0694122,0.008223216,0.08342373,0.06425263,0.07838118,0.054609314,0.06785159,0.078838035,-0.027096005,-0.032015417,-0.048814155,0.01024465,0.06312738,-0.003958915,0.07632398,-0.02206296,-0.013951507,0.03422102,-0.0032158964,0.039853837,0.025107913,0.06387802,0.06747317,-0.027057959,-0.053753607,-0.013877785,0.044908024,0.08841442,0.06612727,-0.043857127,0.049567584,0.039194986,-0.0045783133,0.022064669,-0.025553588,-0.042679366,0.06227783,0.039847247,-0.050049752,0.038788777,0.02805453,0.0780504,0.03610783,0.07041445,-0.013344806,-0.050200284,0.047094546,0.06990822,0.0066984785,0.039263073,-0.05621334,-0.023662405,-0.05182493,-0.008741947,-0.062332366,-0.0057245623,-0.06139068,-0.023592675,0.02077632,-0.008936901,-0.031053195,-0.013579798,0.014125789,-0.005427329,0.06284461,0.04616559,0.056465857,0.010764377,-0.014462496,0.051609732,0.0082222875,-0.005526094,0.04386245,0.06736554,0.110029615,0.022951365,0.081646696,0.0480758,0.0576116,0.053469114,0.07677006,0.022757929,0.027156817,0.061930113,-0.029696941,0.044295095,-0.043048214,0.04800579,0.038128216,0.028719002,0.03224882,0.016560653,-0.001138865,0.07101631,0.08476525,0.053197958,0.06701217,0.063633114,0.039490003,-0.017383892,0.019128919,-0.017300107,-0.023950253,-0.031900622,0.069884986,0.018552588,0.050529636,-0.009004123,0.017786158,0.03899604,0.036042526,0.027662555,-0.025945801,0.005239684,-0.023652485,-0.04332277,-0.012574679,-0.06405652,0.033890367,0.04830776,-0.033603452,-0.05764227,0.057904903,-0.051678557,-0.05892538,-0.08163555,-0.023811063,-0.029592687,-0.049339578,-0.06700577,-0.060604986,-0.09566395,0.012547689,-0.022158122,0.027392622,0.030767143,-0.09785468,-0.09513218,0.042436182,-0.037270647,-0.010747784,-0.0068479055,0.015856111,0.016349431,0.00053006446,-0.048126325,-0.0091736745,-0.018601686,-0.024884084,0.012310675,-0.013166142,-0.01057631,0.04306854,-0.025633652,-0.03800412,0.07648856,0.051039804,-0.008777529},
{-0.022415498,-0.0030124474,0.009136676,-0.026567874,0.061266307,-0.01824201,-0.046580613,0.020616673,0.013571436,-0.08316213,0.028129341,0.084087536,0.013645715,0.04269768,0.048342552,0.008679747,0.0700754,-0.011454956,0.06006037,0.047810186,-0.015700404,-0.06869409,-0.05740039,-0.06113439,-0.09264253,0.054751743,-0.014797306,0.029609462,0.05766102,-0.03808369,0.044621844,-0.042982526,-0.062123146,-0.03007033,-0.021129638,-0.0071866433,0.04935817,0.003068263,0.08916132,0.023957567,-0.010450702,0.027531968,0.059668038,0.03900649,0.05497905,0.030067343,-0.07887236,-0.05979313,-0.03822457,0.0252405,-0.06405629,-0.09113772,-0.08043931,-0.07352202,-0.045133803,-0.029004913,0.049457267,-0.00090175506,0.017107446,-0.008367043,-0.0061965003,0.014538856,0.026192315,0.017995887,0.044315923,0.031161852,-0.0075815488,-0.0010069526,0.017809678,-0.030321328,0.049677417,-0.016152354,0.060925078,-0.040693045,-0.012654267,-0.08059723,0.0041368566,-0.08434373,-0.06525726,-0.051677726,-0.014234751,-0.054689992,0.0046031596,-0.06001666,-0.03109293,0.049675163,0.077531815,-0.007851417,0.03607299,0.086215876,0.027249161,-0.008461049,0.028982539,0.040238746,0.04753794,0.052315336,0.014528311,0.066142365,-0.019721724,0.022774285,0.100916274,0.03554931,0.014727252,0.0015964448,0.0730964,0.068624824,0.093566924,-0.02238151,0.05444506,-0.05456291,-0.0075371917,0.09752449,0.044268847,0.055142116,0.06656868,0.06787162,0.008317112,0.019270897,-0.013057139,-0.015012345,0.0032110848,-0.02514169,0.056835957,0.002995014,0.02311302,0.009106785,0.029361388,-0.0017302192,-0.0448363,-0.017390003,0.059054278,-0.019260583,0.08089607,0.037199643,0.03246334,0.026616504,0.038388815,0.047161035,-0.058945592,-0.06322474,0.063149504,0.05258287,0.057104006,0.08192867,0.049712244,-0.06049475,-0.011211957,0.074608415,0.07111535,-0.029391747,-0.028748222,-0.048486322,0.011742178,0.013566671,-0.025832819,0.024505232,-0.005089804,0.037840046,0.037963618,-0.025425343,-0.038106974,-0.010384304,0.040510356,0.06429398,-0.019599792,0.080786765,0.07516727,0.06913115,0.010752692,-0.012115742,-0.052929025,0.027836347,0.00634264,-0.0054859472,-0.0075038206,-0.06685228,-0.08083022,-0.07113532,0.03648792,-0.04803739,0.057661872,0.038717706,-0.0033539624,-0.0038129624,-0.021423902,0.04637425,-0.036254246,0.012508312,0.002793361,-0.044903334,0.029264158,-0.06274013,-0.049567882,-0.04362773,0.025986535,-0.020433739,0.04849712,0.027012696,0.06276996,0.06293372,0.0063488763,0.06674025,-0.064954326,-0.04339307,0.022820298,-0.032291245,0.014552508,-0.0058262614,0.010450119,0.0101761,-0.042547777,0.0005711356,-0.031573225,-0.005860576,0.09839967,-0.06667042,0.03678976,0.03221496,0.020835528,-0.07577877,0.072875194,0.043033235,0.01249413,0.08078682,-0.006197125,0.06555867,-0.02923803,0.020828193,-0.009780473,0.013485511,-0.0034855618,0.051277425,0.0028820585,-0.011996026,-0.03042846,0.078303635,0.051158536,-0.024949523,0.046421666,0.031627204,0.037089422,0.04214274,-0.026981456,0.012216164,0.09255565,-0.04875715,0.014225139,0.019108385,-0.04001541,-0.034661785},
{0.040917367,0.029668076,0.005030456,-0.0038839069,0.041050766,-0.036900934,0.014281874,-0.009324503,0.021660576,-0.05224243,0.032082457,0.013736185,-0.021693656,-0.008161431,0.04502693,-0.034155436,-0.056543622,0.010626913,-0.023945155,-0.039566386,-0.020603491,-0.03374449,0.032212015,0.030430503,-0.05404226,0.0084853815,0.048502624,-0.024293447,0.042108845,-0.030637795,0.036253903,0.038112514,0.0106141465,-0.029655172,0.03300854,-0.031113882,-0.060543347,-0.02248669,-0.0701278,0.0004361897,0.031012986,0.013320314,0.01734779,0.017170941,-0.03395533,-0.055001236,-0.0827336,-0.03726689,-0.036238957,-0.0109655205,-0.033558693,0.04703259,0.047384534,-0.0136206355,0.06467421,0.050414674,0.06750682,0.08273454,-0.030932605,0.08714577,-0.021192884,-0.016169008,-0.046994008,-0.020172179,0.06296619,-0.06413794,0.011526886,-0.026283428,-0.048873175,-0.009298703,0.026729092,0.008445975,-0.033519015,0.0017794757,0.00861203,0.06523912,-0.024362613,0.028890323,0.08750004,0.08226422,0.021791944,-0.03268505,-0.048787877,-0.034459732,-0.058469728,0.082687415,-0.059894517,0.027940564,-0.041996423,0.027813137,-0.052446835,-0.075890295,-0.061566018,-0.005280652,-0.05312058,0.06730068,0.0069268607,-0.08212717,-0.008844044,0.009339391,0.06439257,-0.013295888,-0.022069816,0.050781015,0.05072923,-0.024308959,-0.015748823,0.035454266,-0.0028134107,-0.011559457,0.0009565671,0.02179371,-0.015995022,-0.037633665,0.032225315,0.0033292184,0.019429319,-0.07003689,0.049770482,0.019469399,0.030320581,-0.09756868,-0.013880556,-0.05154719,-0.00869758,0.026996534,0.059044924,0.04626998,0.013292763,-0.0057070446,-0.046988513,0.008672217,0.009309833,-0.03507758,0.055343598,0.072863705,0.03090583,-0.033477336,0.0017162262,0.073875174,-0.031778537,0.046250876,-0.025921697,-0.04334799,-0.009701831,0.013333385,0.033722702,-0.06398309,-0.021931224,0.012617899,0.03147312,-0.009336013,0.024325315,-6.6333894e-05,0.02885031,0.030598367,0.02743479,0.040857263,-0.03168209,0.07470506,0.007958522,-0.02644341,-0.043179654,0.022257963,-0.060425688,0.043709632,0.07408974,-0.022791466,-0.031210242,-0.028644243,-0.025810517,0.048920132,0.0023991042,-0.01043625,-0.042359013,0.008119062,0.033098347,0.06527324,0.09096345,-0.01638636,0.04699767,0.01452015,0.06667132,0.0143058235,0.021277042,-0.0014350172,-0.03075908,-0.019677766,0.02808984,0.015976544,0.011346471,0.011922149,0.032521408,-0.00017759245,0.05068639,-0.021430071,-0.008568612,0.006408439,-0.074483894,0.00096424413,-0.039879147,0.06232422,0.0583402,0.057280578,0.01634333,0.06510038,0.044040527,0.029546607,0.068021566,0.0063676205,-0.027944176,0.016313085,0.04165856,0.052110147,0.061242975,0.030874621,0.003144276,-0.011230686,0.06801299,-0.0075282613,0.047593124,-0.01343553,-0.051675294,-0.028843487,-0.02245338,0.049373277,0.070005365,-0.01655537,0.039892994,0.016768916,0.05366367,0.008029412,0.05815859,0.05009032,-0.01717165,0.065091066,-0.02685131,0.028314987,-0.0015601356,-0.07689289,-0.044882834,0.05217756,0.0484055,-0.010824645,0.06697146,0.030593107,0.036700312,-0.06024192,-0.03298924,-0.053085994},
{0.025564669,-0.04483118,0.020763036,0.010694591,0.051298346,-0.06537182,0.018756159,-0.0020396532,0.059311584,0.063826,0.03973956,-0.071255244,0.030696956,-0.06831145,-0.027861474,0.04622532,0.022856282,-0.046832353,0.006966814,-0.03408204,0.07191043,-0.014642856,0.04795016,0.08082152,0.07884753,0.01682085,0.048904,-0.02949286,0.053825807,0.08563882,0.048273344,0.035668083,-0.0078106965,0.0944872,0.057094656,0.025584811,0.03524452,0.06057091,-0.037308443,0.018063776,0.057316687,0.046509314,0.05881164,0.024136446,-0.024744352,-0.003960523,0.047603633,-0.013390031,0.048025854,-0.0010211831,0.078644745,0.013539527,-0.01388961,-0.018286008,-0.03894807,-0.015251659,-0.015761593,0.050201405,0.06277841,0.0024983601,-0.01605126,0.07245018,-0.048674915,0.013938252,-0.04534109,0.053930406,-0.0052619637,0.010084719,0.014241256,-0.032788888,-0.034818232,-0.0024108805,0.047560055,0.05008912,-0.063746445,-0.0065352945,-0.06494289,0.074892,0.06984183,-0.038232673,-0.03841202,-0.0746798,-0.043097787,-0.031268384,-0.08625391,-0.0016933625,-0.091483995,-0.072386935,-0.06280743,-0.05028122,0.008524418,-0.07232073,0.00461365,-0.058383804,-0.011965391,-0.050041918,0.032443814,-0.059966046,-0.02504374,-0.052563038,-0.020922856,-0.029627182,-0.012526024,0.032778896,-0.014201201,-0.036015674,0.03005906,0.062942185,0.04112698,0.026067315,-0.0025795419,-0.042030532,-0.031833176,-0.044316247,-0.022675429,0.03659869,-0.0012620946,-0.05787632,-0.04765744,0.0042768344,0.026126962,0.04653592,-0.0023505592,-0.044640288,0.080688156,0.043036927,0.040244695,-0.044622827,0.059785876,0.014778357,-0.05312608,-0.05869954,-0.07500782,0.041396264,-0.009117184,-0.030042049,-0.0476218,0.0072215153,-0.010115419,0.06977292,-0.021913415,0.009917433,0.0073876237,-0.036832754,0.014917935,0.06426742,-5.8712438e-05,-0.03417057,-0.029705914,-0.030732466,-0.021805929,0.065772325,-0.085146055,0.023162602,0.08568858,-0.018246282,0.05224345,0.06760781,0.082606815,0.037982095,-0.049286928,-0.059323777,0.051225428,0.005260307,-0.010459901,0.053218585,0.019414945,0.06016886,-0.021751264,-0.032355756,-0.018085072,0.062097237,0.021590179,-0.003271993,-0.05327787,0.02509191,0.0120700365,-0.018326197,-0.074926145,0.03725756,0.050543394,0.0038588862,0.016298328,-0.05486098,-0.030592823,-0.043595955,-0.051618163,0.0028000146,0.050543133,0.006788735,-0.05979446,-0.057002433,0.0067198365,0.08872144,0.011015006,-0.046945807,-0.07710864,-0.01514605,0.043041147,-0.052656986,-0.026134754,0.015630292,0.015317889,0.0258603,0.0025789964,-0.02705776,-0.051890016,-0.038977474,-0.015032816,0.03277454,0.05111288,-0.0046836482,0.053040348,-0.065975726,-0.006070567,0.032983556,0.06221367,0.0326251,-0.037711427,0.01636994,0.0354639,0.07718186,-0.045728173,0.0161628,0.009504808,0.030106395,-0.0065948055,-0.07094328,-0.05705915,0.050762136,-0.04943207,-0.007154221,0.0058828103,0.02718568,0.051065065,-0.051216483,-0.040650453,0.06834623,-0.040595174,-0.054848704,0.05224906,-0.013376556,-0.010798908,0.018572355,-0.030423319,-0.045113754,-0.016646586,-0.06186907,-0.0842466,-0.0021719132},
{0.025228616,0.04063583,0.009739752,0.023226473,0.08702771,0.034548596,0.05649219,-0.007925708,0.04325601,0.05286233,-0.041266415,0.068256415,-0.048058435,-0.004637907,0.013931609,0.041070744,0.027745938,0.07499315,0.049276784,0.059826408,0.03342817,-0.00708392,0.017476648,0.06652844,0.08011041,0.045655455,0.030584754,0.091148615,0.03916729,0.026707575,0.006860239,0.0774787,0.030201659,0.035204507,-0.006309502,0.0021583254,0.030778212,-0.028917266,-0.016912026,0.043599833,-0.0077888975,0.012589109,-0.0061639366,0.020754935,0.05031254,-0.058522314,0.026564434,-0.025211003,-0.029435381,-0.052776232,-0.07042029,-0.028803235,0.051269118,0.07728533,-0.01766447,0.026303792,-0.06680248,-0.055839725,0.013828046,0.04167649,-0.073786564,0.038591795,-0.07578932,-0.055288162,-0.0311017,0.04419243,-0.018680174,0.021162886,0.04261855,0.06989555,0.009206261,-0.04120517,-0.03112701,-0.034511127,0.008249465,-0.011462143,-0.0023668879,0.05566331,0.03430901,0.073250666,-0.06352835,-0.064023465,-0.09237102,-0.004479128,-0.059814617,-0.07443162,0.016797932,0.0028704307,-0.0022053549,0.051700763,0.05122931,-0.037229445,-0.049622405,0.022941142,0.04537428,-0.004073178,-0.02334275,-0.010769853,0.10723825,0.097928934,-0.069413245,-0.00552139,-0.042334206,0.0063050915,0.03627558,-0.031056905,0.039355986,-0.05993648,-0.0093655735,-0.01894187,-0.048838858,-0.017496385,0.07201093,-0.010299434,0.030213755,0.06376796,-0.018792853,0.07222358,0.06065585,0.05134495,-0.03333838,0.03738615,0.06326063,0.09032598,0.054495104,0.08018147,-0.013046488,0.025094023,0.007106894,0.06390099,-0.036126,-0.06742594,-0.060090568,0.020956809,-0.013862806,-0.040385813,-0.06716081,-0.002599129,0.0059614433,0.10150153,0.012774548,0.03994434,0.037100703,-0.031003889,0.044088,0.046022583,0.038323414,0.084614865,-0.0007138397,-0.0089713745,0.026112815,-0.068970606,-0.056864303,-0.027818194,0.029042259,-0.045348562,0.0050393376,-0.00011642665,0.000614048,0.018433062,-0.0072178054,-0.033781294,-0.022408314,-0.009923324,-0.09337646,-0.07154961,-0.05269258,-0.004809684,-0.059540056,0.011053378,0.016127223,0.056993604,-0.048992176,0.03351096,0.06877122,-0.027565705,0.010073181,-0.037084017,-0.067245975,0.018821336,-0.041437443,0.04301449,-0.01812478,-0.03423445,-0.065179095,0.016927507,0.07131233,0.020308858,0.03563927,-0.06764673,0.020129709,0.026618307,0.027875086,0.05187364,-0.008975557,-0.024292093,-0.0048068585,0.042686753,0.04146429,0.024686081,0.07757986,0.0058972784,-0.08075056,-0.015797919,0.016860666,0.014261876,0.04359236,0.070020944,-0.0053120265,0.06378309,-0.014110276,-0.08236467,-0.0349497,0.00600307,0.061679333,-0.044205043,-0.03858845,-0.010442192,0.042554222,0.08880997,-0.047009777,0.00871498,0.04530649,-0.048271045,0.022446921,-0.06563868,-0.010176167,0.014767709,-0.02757579,0.055184856,0.052389756,-0.061359476,-0.022381429,0.01979203,0.08372619,-0.04322221,0.031990305,-0.0658881,-0.034493856,-0.015683558,-0.048114892,0.01232073,-0.040750384,-0.004162867,0.000541012,0.07229206,0.0077788075,0.03683192,0.06384428,0.07902005}
};
float conv2_bias[]={
0.016688477,
0.065103196,
-0.04798724,
0.045379795,
0.0013820904,
-0.016871255,
0.0505998,
0.030580623,
-0.06728243,
-0.012743268,
-0.05371341,
-0.03284603,
-0.0054336023,
0.036794253,
0.06166355,
0.054736607,
-0.020500783,
-0.0137189105,
0.08012,
0.0056988723
};
float fc_weight[][320]={
{0.002117209,-0.00479731,0.06058652,0.025771182,0.053237483,0.073261335,0.045370843,0.06101658,-0.07103138,-0.05305578,-0.04585042,-0.041532274,-0.067613736,-0.02440572,-0.081870325,-0.04553464,0.0067874463,-0.015656333,0.051905435,0.05278144,-0.04208361,-0.035546675,-0.019169947,-0.0038950979,0.028916104,0.024382185,-0.020420784,-0.025191158,-0.016680866,0.014822114,-0.06326278,-0.015446724,0.061102822,-0.018859077,-0.011689313,-0.014769855,-0.04467746,-0.031603947,-0.008600875,0.03482504,-0.060812045,0.022780245,-0.03309537,0.0037380818,-0.008606342,-0.057024583,-0.026245218,0.028057273,-0.066775836,-0.028002944,-0.021530356,-0.017956942,0.0012422461,0.016198723,-0.0396458,-0.04350739,0.023244938,0.033458203,-0.0019433371,-0.054538555,0.052009355,0.034104686,-0.019631548,-0.030154454,0.05542047,0.012013784,-0.0533056,-0.03900137,0.059103206,0.041394893,-0.049206443,0.03621529,-0.050482433,-0.011797712,-0.0680827,-0.053788494,0.014523556,-0.043068927,0.0033517545,0.031248927,0.06148184,0.029620739,-0.013852571,0.0055628438,-0.0762111,-0.047924772,-0.07011865,-0.027766319,-0.10794874,0.008148393,-0.037136905,-0.017797198,0.0012697233,-0.009035802,0.029893233,-0.028699657,-0.0035084109,-0.00199068,-0.009702528,-0.012377923,-0.01474479,-0.0054023177,-0.066224426,0.006895358,-0.013203867,-0.01189106,-0.003275875,-0.036175545,-0.0034935744,0.01519481,-0.023521924,-0.049529362,-0.0125900805,-0.038190074,0.022085482,-0.039435763,0.010707025,-0.09051311,-0.09305114,-0.063749544,-0.04975537,-0.010223652,0.0038820736,-0.025427517,0.029285748,0.026108237,-0.02406513,0.018371616,-0.008251,-0.08209283,-0.034602046,0.010874719,-0.07697003,-0.026356552,-0.03601875,-0.020894889,0.011936734,-0.018503029,-0.022958094,-0.013540829,0.034924474,0.062801234,-0.034451365,0.021190355,-0.0037233052,0.0015673575,-0.00579863,-0.0059419726,-0.011780541,-0.062678196,0.031957436,0.05068802,0.021142777,-0.006533166,-0.038941264,-0.0027676134,0.055064093,0.0024220753,-0.042760175,0.057044446,0.026863113,0.0034738965,0.028462576,0.031685423,-0.04119187,-0.04059873,0.032005202,0.035667207,-0.02653304,-0.04716087,0.013254631,0.07174205,-0.03646845,-0.024044026,0.02845732,0.04261056,-0.022279149,0.0025730778,-0.047633447,-0.07948491,-0.060010847,-0.01592259,0.013919279,0.028784055,0.028984124,0.007320856,0.025351273,0.023482094,0.079083815,-0.017857525,0.010961504,0.051053546,0.03144168,0.028101904,0.045571953,0.061227366,-0.010675525,0.03322461,0.05707886,0.011374489,-0.082592234,-0.07028552,0.024865469,-0.0051536756,-0.050639417,-0.076292746,0.056254286,0.022665035,0.06848867,0.06538342,0.03365245,0.03480341,0.018747605,0.020813612,0.014137611,-0.032081816,0.0013651791,-0.0037923406,0.048261985,-0.034408126,0.03881391,0.026309261,-0.028519966,0.04391703,0.038126733,0.01960999,-0.045744397,-0.028427055,0.054080553,0.040680666,-0.0361321,0.03796226,0.040110104,0.00030195437,-0.03515407,-0.01534395,0.0677125,0.04418914,0.0048289765,-0.028203348,-0.04839249,-0.008813136,-0.008914256,-0.022189403,-0.07624727,-0.019851703,-0.06210095,-0.036902763,0.032597534,-0.0125836,0.024054723,-0.037491538,-0.02319701,0.065408446,0.049347844,0.011207651,0.020874724,-0.045085788,0.058039278,0.012152052,0.011336892,-0.039384168,-0.08448686,-0.07244522,0.016625164,-0.009358126,-0.026236411,0.038886916,-0.041962534,-0.016486691,0.012839066,-0.04143048,0.069857605,0.053571627,0.0747925,0.05707895,0.056231238,0.05621078,0.041222572,0.010569199,-0.03800028,-0.018666634,-0.07957453,-0.0142277535,-0.029298853,-0.03386921,-0.09484522,0.025832087,0.07744552,-0.009819148,-0.025149249,-0.041094333,0.0418852,-0.03488896,-0.009910764,0.0037619597,-0.060204804,0.017885286,-0.0017357182,-0.043736506,0.0047886395,0.06153766,0.0071013756,0.017143799,0.03431745,0.03308112,-0.05035409,-0.040402703,-0.0758205,-0.031024722,0.046494406,0.036333695,0.0028810354,0.053722125,0.01674465,-0.0076119937,-0.036088854,-0.06518473,0.035007358,-0.017932478},
{-0.032239314,0.07263318,0.04149521,0.06377561,-0.0494105,-0.06356888,-0.038774297,-0.06910069,-0.035984494,0.037340682,0.065989465,-0.014288002,-0.060427867,-0.0007078391,-0.042046785,0.032933373,-0.09078258,-0.0609643,-0.008917074,-0.030697364,0.004025178,-0.09717969,-0.03113731,-0.004398212,-0.05173854,-0.007464466,-0.0041684136,0.03388816,0.011653627,-0.019656366,-0.039597344,-0.033099968,-0.004189602,-0.019727115,0.05758686,0.047797665,0.05104771,0.07152783,-0.030471798,-0.0019034173,0.032567166,0.046006847,-0.009124777,-0.008336255,0.021036297,-0.044571027,-0.001858172,0.0022564684,0.031953875,-0.035955805,0.049779877,-0.0069400817,-0.028900798,0.020142615,0.04671195,-0.030303216,0.030098304,0.04906482,-0.03719524,0.015851006,-0.0458308,-0.053799264,-0.016678857,0.025702195,-0.084293455,-0.00041976763,0.06303937,-0.010706329,-0.05000395,-0.019774565,-0.005941991,-0.02650934,-0.042192753,-0.039494213,-0.022091199,0.019414632,-0.020454265,0.03721381,0.022891508,0.015206259,-0.070803255,0.010501266,0.028727181,-0.030877529,-0.03920579,0.012130361,0.04001584,-0.038791895,0.0025603196,-0.03635458,0.051237095,0.0011775882,0.02293728,-0.023665128,0.0787011,-0.0039854473,-0.006212828,-0.008478413,-0.0099082915,-0.012466681,-0.013327246,0.011800263,-0.018874744,-0.07738229,0.0006623201,0.007106046,-0.025777947,-0.002849492,0.0010875331,0.0059537957,0.0064357733,-0.019031921,-0.050462108,-0.046901293,-0.026973765,0.03484296,-0.01128348,0.013968218,0.066794865,0.0024516375,-0.03001838,0.06487969,0.048502535,0.01181759,0.039724115,-0.0053496845,-0.052704282,-0.055900626,0.027441382,-0.039799735,0.02769107,0.0256375,-0.007841472,0.008290499,0.014403684,0.02675282,0.059854016,0.0026364739,0.028371781,-0.010051137,0.040171057,0.01990851,0.04549856,0.0052851164,0.029419003,0.04694479,-0.036254887,0.032406844,-0.04762557,0.042082254,-0.042660654,-0.0028533062,0.051910523,0.049094975,-0.010690856,0.0061442163,-0.010582034,-0.01734781,-0.029884748,-0.058089692,-0.027118202,0.052984323,0.022878125,0.011282555,0.011210094,0.014606297,0.02428597,-0.019142786,0.033415552,-0.074156985,-0.04793784,0.011928402,-0.042831548,-0.01419868,-0.07780358,-0.044849046,-0.03681982,0.049284495,0.051473346,-0.061162636,0.008668024,0.077782616,0.018763402,-0.0026713167,-0.043349482,0.037013423,-0.013499287,-0.026862884,0.0040544257,-0.03857674,-0.06923526,-0.018524863,0.06986371,0.033806227,-0.028634194,0.015561365,-0.042718362,-0.041076228,0.062781595,0.019052267,0.027219614,0.018115576,-0.04141769,-0.052228045,-0.042341284,-0.032364752,-0.052249774,-0.034900304,-0.10316091,-0.007586367,-0.059380442,-0.07223024,-0.06261418,-0.044305246,-0.004371209,0.025047826,0.011315534,-0.018089367,0.015908768,0.064310886,-0.031188807,0.051340386,0.035382736,-0.026114793,-0.045612335,0.013809957,0.060686212,0.035176463,-0.05672036,-0.050798602,-0.0627605,-0.052378803,-0.042428643,-0.070536904,-0.04363182,0.03732091,0.027295928,-0.025737526,-0.022674583,-0.017634813,0.009094273,0.047487613,0.031318456,0.062052265,0.0014897536,0.011694627,0.06625815,0.00063488365,-0.0018086813,0.022717398,-0.012631974,0.010592375,0.0053305295,-0.08924711,-0.053313304,-0.030975971,-0.018216621,0.07118615,-0.007999924,-0.05836907,0.0055397283,-0.04711395,0.010683444,-0.004945167,-0.02238876,-0.041716695,0.031539135,-0.08128107,-0.033050645,-0.006749371,0.009836889,-0.08031131,0.0031093955,0.008375523,0.06390285,-0.01817463,0.02808744,0.034615967,0.0039136005,0.010715254,-0.046324994,-0.017340908,-0.044235855,0.02494717,0.0038994835,-0.013873258,0.00830511,-0.033782884,-0.104518354,-0.04979171,0.02243169,-0.067373425,-0.021760145,-0.030859971,-0.053457674,-0.07854746,0.04302526,0.031651292,0.025164843,-0.022981893,-0.01233903,0.047575418,-0.0016671292,0.009348436,0.017758423,-0.023584291,0.029029077,-0.06523602,0.03268545,-0.05722035,0.008623494,-0.0763307,0.040992517,0.014391672,-0.0322762,-0.052365538,-0.04087027,-0.06582714,-0.06496504,-0.054792743},
{0.019477889,-0.09051307,-0.065198585,-0.019351957,-0.02616139,0.06846377,0.0064890063,0.03439731,-0.014224437,0.038231324,-0.012106588,0.007214789,0.06325002,0.012126338,0.029326878,-0.0021392205,0.0017981048,-0.06538781,-0.022150766,0.03634048,-0.06834658,-0.00029636335,-0.011144479,0.00089290534,-0.09017773,-0.046234343,-0.039508123,0.04756674,0.012070881,-0.00080460345,-0.020889828,0.010394768,-0.0025965662,0.03480481,0.019501533,-0.0064538135,0.056251086,-0.027373014,-0.009675997,0.0493142,-0.020569576,-0.018816898,0.03961102,0.012231546,-0.026827956,-0.047917046,0.0033705274,0.028358907,0.042954147,-0.030359311,-0.02953314,0.044028874,0.00019114312,0.038692623,-0.01767064,0.013572899,-0.037478648,-0.05641205,-0.07302279,-0.06644447,-0.026479442,-0.03096187,-0.028382147,-0.05629567,0.019278353,-0.017128013,-0.061584875,-0.006269447,0.006191948,0.02684007,0.053007215,0.026431082,-0.04655168,-0.056595784,0.025659287,0.012283459,0.046847276,0.044321254,0.008045285,0.02721366,-0.008594052,-0.06298862,-0.0077347527,-0.035498463,0.050192766,-0.0017506583,-0.025188282,0.05717335,0.047681715,0.040291354,0.03756384,0.036132917,-0.010793318,-0.07376957,-0.046432212,-0.06786392,-0.000828877,-0.007374946,-0.008758957,-0.0052674063,-0.012639689,0.009602468,-0.023706786,-0.081154406,-0.009833546,-0.0127380295,-0.023719432,-0.017576452,-0.005408936,-0.009069016,0.0010363726,-0.015110591,-0.040101476,-0.008790901,-0.007833218,0.065515935,0.0325634,0.019622574,0.0020718789,0.040998932,-0.059551932,0.055130634,0.012718954,0.04378269,-0.059270054,0.0075268424,-0.020590594,-0.03448471,0.019596566,0.04472976,0.058125015,0.012540293,-0.0043353816,0.047798034,0.066521,-0.03469262,0.037028864,0.030034099,0.010371996,-0.045887113,-0.03231002,-0.0476002,-0.023468139,-0.071279414,0.013484338,-0.04096566,0.007992517,0.038464062,0.021545043,-0.031119114,0.049375646,0.0491272,-0.00094057166,0.05001044,-0.039607268,0.054986116,0.025229352,0.012271184,0.020208716,-0.0034447077,0.011847924,-0.038950972,-0.0662774,-0.029354183,0.06484421,-0.04474831,0.017118553,-0.02708299,-0.03592109,0.009703338,-0.012765104,0.019389175,-0.014715333,-0.036038242,-0.0028835386,0.002023927,0.052276034,-0.002314634,0.0021514103,-0.063926965,0.017869657,-0.030125042,0.0015225639,0.041736864,0.02474898,-0.048628435,-0.0053751543,-0.05584841,0.010668647,0.029285308,0.0042578895,-0.07082504,-0.028237965,-0.037514467,0.053936582,-0.027729249,0.06944102,0.05407831,0.03361518,0.037593957,0.010675151,-0.02127603,-0.014372061,0.04525796,0.0639837,0.06882918,0.05440684,-0.05593644,-0.015545748,-0.09612788,0.04969316,0.00927133,-0.017268848,-0.0051371274,-0.020454776,0.070273824,0.057682045,-0.011742827,0.01230987,-0.02093366,-0.062243782,-0.045915626,-0.02735291,-0.0125008905,-0.058875896,-0.06787684,-0.0042390344,-0.015916465,-0.03965282,-0.04899266,-0.0774481,0.018646521,0.017821647,-0.059468593,-0.07599789,0.045544546,-0.03334808,0.04104432,-0.054229695,0.048931856,0.059881564,0.0538543,0.048637852,0.04212913,0.0637082,0.027606051,0.033328645,0.010357887,0.03395598,-0.042051934,-0.065864235,0.008091766,-0.05343575,-0.064519756,-0.01408131,-0.01603923,-0.02281173,0.054761637,0.05973527,0.07367901,-0.03460158,-0.04246932,-0.044710666,0.020495363,-0.057414033,-0.07007906,0.0030175075,-0.0024357256,-0.009920543,-0.07097635,-0.06956034,-0.012793782,0.0524128,-0.07215669,0.0077286456,0.021403493,-0.0132834995,-0.058445327,-0.047432605,0.012300068,0.013239988,0.041159082,-0.015655363,-0.006058183,0.06812141,-0.033490103,0.038836997,0.019353367,-0.08913692,-0.04482643,-0.01844879,-0.04559184,-0.05539603,-0.10466514,-0.018163174,-0.043120872,-0.054552775,-0.007525848,-0.033051938,0.023615262,-0.06622939,-0.008669946,0.05490646,-0.015629897,0.022413844,0.020305056,0.016237708,-0.027463892,0.031200364,0.06965056,-0.035022475,-0.066279955,-0.053327404,0.01148647,-0.08213184,-0.08405032,-0.020995615,-0.095284395,-0.08380396,-0.05213324},
{-0.00961237,-0.012329088,-0.019045591,-0.023627304,0.036246672,-0.059646208,-0.09130654,0.025115075,-0.02306817,-0.054851137,-0.018241957,0.018392423,0.008863398,-0.014454501,0.03980934,0.016036388,0.04095557,0.008613285,-0.019123746,-0.052350778,0.013890118,0.06534608,-0.022791633,-0.01903655,-0.015336539,0.045148958,-0.042942673,-0.0056296475,0.06533001,-0.014725903,-0.0077632964,-0.022165837,-0.0431906,-0.09173438,-0.017984431,-0.034001537,-0.0049239155,-0.037210915,-0.07285472,0.017611345,-0.011719031,0.01721876,-0.03240251,-0.02635598,-0.03153118,0.0027815015,0.044184424,0.019954095,0.041713476,0.03912897,0.007926946,-0.1014014,0.027275821,0.02100652,-0.07128086,0.0047489107,-0.025914513,-0.009471626,-0.062169436,0.030206002,-0.01287502,0.059590697,0.047049154,0.0026508037,-0.0017028768,-0.07553535,-0.025675602,0.009355193,0.0016681302,-0.05088578,-0.07822374,-0.05397472,-0.008701912,0.014918136,-0.021647722,-0.038080033,0.04032524,-0.0478092,0.05344648,0.064281784,0.037707772,-0.0018082684,-0.0512519,-0.019974738,-0.07759477,-0.044499088,0.057782687,0.07661855,-0.052384302,-0.07035418,-0.040476974,-0.01277324,-0.05717205,-0.042848002,-0.005485875,-0.021935755,-0.00621502,-0.0060056928,-0.0059330366,0.0065814364,0.0066711176,0.04126416,0.031357784,0.072517805,-0.008502044,3.774876e-05,0.006466909,0.010898972,-0.0018469002,-0.013697764,0.02615873,0.00632815,-0.00024258802,0.028035017,0.0071472535,-0.046897244,0.041548442,-0.028821096,-0.012988744,0.020635689,0.031718057,-0.049213305,-0.08196298,-0.003997312,0.0636149,0.058150187,0.041641407,0.01324151,-0.032831274,-0.069824986,-0.016664447,-0.0125011215,-0.040764987,-0.01928987,0.030619709,-0.027174339,0.036541503,-0.011406076,-0.030248674,-0.024729794,0.040998947,0.05561863,-0.0051466012,0.021885458,0.001430259,0.035047557,-0.062144563,-0.013627015,-0.03678425,0.007023856,-0.09721466,-0.03661477,-0.082524545,-0.052578107,-0.040836863,-0.04693006,0.020044137,0.05182527,0.055469237,-0.039299805,0.031003997,-0.032755908,0.0062629194,-0.017309533,-0.01458028,-0.056218717,0.02307167,0.015178477,0.012155208,-0.070409715,0.054794222,0.013327395,0.057473145,-0.036610223,-0.04624756,-0.060110528,0.01608022,-0.02266772,-0.07272544,-0.040488325,0.017019974,-0.09535247,0.044942398,0.030912189,0.042587943,0.043186985,-0.027736425,0.0013820345,0.03414482,0.06910071,0.053090602,0.04957515,-0.09979595,-0.02757828,-0.025984844,-0.0023674434,-0.03782152,-0.09739112,-0.017843025,-0.04902683,-0.06775762,-0.022350784,0.001442228,-0.012456998,0.026992008,0.021778809,0.04606327,-0.013957144,0.024405578,-0.03317088,-0.0046129343,0.017466871,-0.02582766,-0.097290605,0.011772231,-0.022250948,-0.04440055,0.01114023,-0.022270689,-0.038286276,0.027033959,0.025615294,-0.018174333,-0.035313882,0.028715955,-0.0445218,-0.05527535,-0.056264788,-0.023586843,0.05778698,0.032367073,0.058169976,-0.027525054,-0.004417886,-0.01745126,-0.0035654346,0.0038254312,0.030204115,-0.023413481,0.060109325,-0.07307114,-0.0071830656,-0.08385705,0.035263944,0.07217166,-0.01539133,-0.006507175,-0.03231935,0.05342382,0.007053506,-0.010607602,0.051780745,0.029492076,0.06730409,0.012784451,-0.0060295886,0.015636897,0.015624951,-0.059801016,-0.020406451,0.022358725,-0.0709314,0.03040627,-0.032546666,0.06882479,-0.0061820205,0.069356404,0.04820572,0.063742384,0.06461599,0.043342326,-0.020361861,0.012696226,-0.007868521,-0.044687998,-0.03247346,0.006899428,-0.0831436,-0.02800079,-0.05205095,-0.048897576,-0.017112078,-0.0071549886,-0.045779467,-0.033075266,0.0039071846,-0.015502211,-0.009949112,0.064673886,0.025853734,0.051254857,0.049509227,0.03301912,0.07920735,-0.019571438,-0.02606267,0.03447042,-0.06176987,0.047589224,0.065519266,0.020299135,-0.08422881,-0.00043365223,-0.027215071,-0.039797816,-0.091319144,-0.004093324,0.036499385,0.0241514,-0.041620094,0.0827642,-0.04805215,-0.05240809,-0.03353631,0.04701652,0.06479245,-0.025316045,0.036238663,0.056846682,0.07020665},
{0.013740399,-0.023675645,-0.0020662483,-0.047783304,0.034063462,-0.0547799,-0.020570375,-0.011918251,0.035359707,-0.03512623,0.018496264,0.021860762,0.052550547,0.005124361,0.0038543458,-0.07681715,0.07501278,-0.003867681,-0.040601484,-0.012764646,-0.012674582,-0.042966776,-0.050442103,0.03543509,0.0006436945,-0.023905236,0.03668274,-0.02146718,0.0034231115,-0.06719003,0.01365717,-0.02449025,-0.04949234,-0.0032143558,0.048705574,0.06755594,-0.033759512,-0.04610467,-0.007846437,-0.0001547925,0.016424825,-0.040062778,-0.058357082,-0.058073137,0.018819734,0.055402927,0.02058727,-0.025319854,-0.06630768,0.014334979,0.045352887,-0.05584065,0.06063949,0.02128067,-0.040726155,-0.0145417005,-0.015272516,-0.049485777,-0.040261295,-0.025951374,0.016869258,0.033036493,-0.043780897,0.03472035,0.059648395,0.014918422,0.03527409,-0.0013812141,-0.0018216271,-0.016721038,-0.03559957,-0.028951671,-0.0473226,0.0062094815,0.049337946,-0.029998183,0.0069045844,0.030290283,0.022063816,0.024284571,0.0063115866,0.014716884,0.0058670794,0.004404235,-0.058776133,-0.03489108,0.026759395,0.036458503,-0.06746206,-0.0286042,-0.017317107,0.0025273482,0.028035032,-0.012491221,-0.033811957,0.019281125,-0.0064726556,-0.008132233,0.006622959,-0.012226876,0.005124815,-0.03256537,0.001149701,0.0007922336,-0.009923298,-0.003150079,-0.0057445075,0.016698638,-0.009125838,-0.01607861,-0.03975232,-0.050785147,-0.012086085,-0.037706576,-0.07672087,-0.09780664,-0.036060862,-0.03361521,-0.044460356,-0.038225446,0.01383664,0.02847483,0.028898597,0.017965838,-0.060310937,-0.0075151217,0.008429892,-0.01589235,-0.043801446,-0.048563983,-0.08938267,0.025418816,0.01928811,-0.039743803,0.041964967,0.052568972,0.050644748,0.06319818,-0.0144121,0.017752167,-0.048106894,-0.015697056,0.063157514,-0.059814516,0.052007526,-0.0043141623,-0.024286078,0.035498492,-0.03328398,-0.029092893,0.023441298,0.010401728,0.024914518,-0.021387614,-0.019321302,-0.063969225,-0.04050773,0.011998226,0.052869692,0.0012910061,0.036929995,-0.09152065,0.0066263904,-0.026286954,0.0081041,-0.056233935,-0.036903244,0.05407682,-0.030920466,0.03012932,-0.06217967,0.010389603,0.02203973,0.004108558,0.014290938,0.0034114157,0.030697856,-0.060777288,-0.019513058,0.063655734,-0.026612803,0.0134996,0.0233602,0.011337428,0.0044324826,-0.034126114,-0.038252205,-0.045508407,0.015210357,0.0041107475,-0.018114712,0.026236821,0.021212427,-0.007850974,-0.016950743,-0.06957991,-0.002637804,0.0106509235,-0.07444346,-0.009437116,-0.0142198885,0.018036868,0.027936874,-0.052837487,0.013499731,-0.009416586,-0.043267403,-0.0046992297,0.029393956,-0.020483091,-0.03554844,-0.003918133,0.0657947,-0.023617968,0.04568166,-0.03890812,-0.03549401,-0.013695687,0.0059935637,0.050707188,-0.019974992,0.025521187,-0.040007405,-0.014084041,0.054555763,0.03125539,-0.018483445,0.03439557,0.034805823,-0.008811225,0.053053346,0.03952648,-0.037506316,0.052272532,0.00065950694,-0.02371803,-0.029735375,-0.008419785,-0.045486536,-0.003501268,0.038862377,0.05769716,-0.005614833,-0.00039055262,-0.030465908,0.02561145,0.04730053,0.0003759395,0.058698755,0.01726485,0.026267685,0.042401154,0.021649018,0.03684088,0.027344994,-0.03798165,-0.0022921558,-0.015035401,-0.099841245,-0.058191046,-0.004432944,-0.019964999,-0.027576655,-0.009312844,-0.025414737,-0.060240295,0.032419335,-0.05773977,0.008259958,0.0335512,0.04066108,0.010234027,0.057762444,-0.019243328,-0.034927864,-0.026379619,-0.036913883,0.022671472,0.025055332,-0.035101533,0.04004352,-0.074119136,-0.006010889,0.04233057,0.02347471,-0.0018982596,0.00547457,0.065540686,-0.063727714,-0.04397282,0.024301767,0.030587442,0.019479113,0.014803457,0.060209796,0.079154335,-0.055646226,-0.033099383,0.051910285,-0.008214288,0.00722788,-0.031551737,-0.08723998,-0.035802647,0.017815894,-0.024238743,0.047225375,0.054834872,0.01926845,0.021922573,-0.06641498,0.040301498,-0.021667032,0.0043536746,0.024919568,-0.0042491825,-0.006951574,0.027188068,-0.006059162,-0.049077153},
{0.071470074,0.07391601,0.012111928,0.05525927,-0.056071,-0.07039917,-0.07853468,0.009395254,0.019730762,-0.018855255,0.0010585885,-0.020803064,-0.025817877,0.049195886,0.0069225025,0.018029355,-0.07600847,-0.06536645,0.016346185,0.007650395,-0.017317945,0.032271236,0.049030107,-0.009561722,-0.020703565,0.015700491,-0.06680338,-0.017158266,0.0125351995,0.009614138,0.00910322,0.0013974723,-0.037193093,0.035593074,-0.061470516,-0.009217094,0.057349116,0.063792385,0.06567939,0.026816592,-0.050371524,-0.019721542,0.057270736,0.029630123,0.013558825,-0.03009042,-0.062544875,0.03706009,-0.024905898,-0.006514534,-0.046987936,-0.06646399,0.048691697,0.06695331,0.0072000967,0.063448064,-0.046984084,-0.044880055,0.06114165,0.06325773,-0.08528264,-0.03872488,0.03945776,-0.06457215,-0.06346381,-0.038847778,-0.011212907,-0.01960538,-0.0050366875,0.044962265,0.01466852,-0.05743163,0.011437657,0.04997963,0.065589905,0.012646809,-0.03566987,0.04853606,-0.043840043,0.05651657,-0.060179316,0.040879793,0.008922213,-0.012743327,0.027950825,0.023744961,-0.061354365,-0.02267466,0.056779154,0.0845047,-0.009975323,0.034580816,-0.067581445,-0.045213144,-0.04448436,-0.0690663,0.006876407,0.0085590705,-0.002062719,-0.010994131,-0.006528144,-0.0015082364,0.006109747,-0.014680737,0.008327136,-0.0027487762,-0.022018567,-0.0128700035,-0.0143963555,-0.010700645,-0.007811847,-0.03509223,0.04489135,0.02323957,-0.044816107,0.023388883,-0.067701064,-0.0064914,-0.06455389,-0.0692593,0.03944232,-0.046666194,-0.03242119,0.012051788,-0.00023095676,0.049939044,0.004374269,0.00627309,-0.034594774,0.03955504,-0.013105175,-0.026377501,0.035545412,0.03533044,-0.02606698,-0.0379314,0.037151232,-0.04851247,0.038718816,-0.05323064,0.03081753,0.044793047,0.002988904,0.055176947,-0.027303416,0.042958807,-0.0091590965,0.045046974,0.03290945,-0.035208523,-0.0033189177,-0.04839153,0.04148458,0.035178546,0.02206758,0.010805663,-0.019672375,0.004478499,-0.013148196,0.021404214,0.085671864,0.068932995,0.015161933,-0.038159437,0.036329783,-0.0155469645,0.012904074,0.053538144,0.03305106,-0.009674139,0.019999927,-0.024293013,-0.010033739,-0.048840456,0.05337606,0.05527404,-0.029327119,0.029089758,-0.049267635,-0.002061928,0.019309064,-0.026420502,-0.023643745,-0.054825515,0.013736394,-0.036111064,-0.041658066,-0.008700366,-0.048950803,-0.030410003,-0.007042691,-0.027839884,0.00073822716,-0.021621807,-0.055509996,0.05365095,-0.04299335,-0.019667992,-0.07622709,0.03756423,0.023056066,0.0247439,-0.03689262,0.07324116,-0.008783253,-0.05691683,-0.044568,-0.020947095,0.018841932,0.06477452,0.05151166,0.07411471,0.074511714,0.06377152,0.02678584,-0.05522841,0.022401908,0.0048114182,-0.008516106,-0.05331098,0.03724516,0.041611746,0.0390089,-0.018334651,-0.033436365,-0.032340635,-0.058681216,-0.026606908,0.032239143,0.024663046,0.012345675,-0.021833811,-0.02647689,0.06760963,-0.020547915,0.03011272,0.022683615,-0.008958559,0.04721932,0.030958734,-0.046403993,-0.030083742,0.0029284449,-0.0036798941,-0.030748142,0.05230366,0.047096923,-0.0147536155,-0.0047802436,-0.04170723,-0.0017082044,-0.04433921,-0.021948285,0.049261365,0.020425541,-0.010289024,-0.03672275,-0.051393982,-0.0741545,-0.010913646,-0.0017248258,0.07522443,8.427398e-05,0.06065053,0.005717009,0.028092274,0.048728507,-0.038442653,-0.0004953799,-0.056529272,0.0089740725,-0.06394691,-0.046211697,0.044216685,0.010191438,0.0432933,0.026338201,0.0406895,-0.031912904,-0.021960285,0.03192544,-0.010980275,0.03955615,0.011171769,-0.03474761,0.032077495,0.020185536,-0.02107785,0.0012277395,0.035997227,-0.06866178,-0.08539494,0.010324324,-0.019666122,-0.0276051,-0.016364057,0.06001544,0.029261066,-0.06394392,-0.07340643,0.062731676,0.03317502,0.006356586,-0.016477076,0.034637127,-0.025431568,0.008236436,0.03460206,-0.022273714,-0.01611934,-0.03202714,-0.04265261,0.0458337,0.061911475,-0.072769575,-0.051955603,0.020261005,-0.035170943,0.024022283,-0.020915676}
};
float fc_bias[]={
-0.033988353,
-0.03134813,
0.022164159,
-0.0149670495,
-0.0019446568,
-0.04408915
};
#endif
